## LambdaMART
## No. of trees = 1000
## No. of leaves = 10
## No. of threshold candidates = 256
## Learning rate = 0.1
## Stop early = 100

<ensemble>
	<tree id="1" weight="0.1">
		<split>
			<feature> 369 </feature>
			<threshold> 0.22517376 </threshold>
			<split pos="left">
				<feature> 316 </feature>
				<threshold> 0.05014611 </threshold>
				<split pos="left">
					<feature> 228 </feature>
					<threshold> -0.710789 </threshold>
					<split pos="left">
						<feature> 538 </feature>
						<threshold> 0.23667006 </threshold>
						<split pos="left">
							<feature> 635 </feature>
							<threshold> 0.9941919 </threshold>
							<split pos="left">
								<output> -0.8318986296653748 </output>
							</split>
							<split pos="right">
								<output> 2.0 </output>
							</split>
						</split>
						<split pos="right">
							<output> -2.0 </output>
						</split>
					</split>
					<split pos="right">
						<output> -1.6790289878845215 </output>
					</split>
				</split>
				<split pos="right">
					<output> -2.0 </output>
				</split>
			</split>
			<split pos="right">
				<feature> 534 </feature>
				<threshold> 0.120325625 </threshold>
				<split pos="left">
					<feature> 652 </feature>
					<threshold> 0.7493945 </threshold>
					<split pos="left">
						<feature> 536 </feature>
						<threshold> 0.18556532 </threshold>
						<split pos="left">
							<feature> 369 </feature>
							<threshold> 0.39691684 </threshold>
							<split pos="left">
								<output> 1.006312370300293 </output>
							</split>
							<split pos="right">
								<output> 1.6062803268432617 </output>
							</split>
						</split>
						<split pos="right">
							<output> 1.9694597721099854 </output>
						</split>
					</split>
					<split pos="right">
						<output> 1.9163321256637573 </output>
					</split>
				</split>
				<split pos="right">
					<output> 2.0 </output>
				</split>
			</split>
		</split>
	</tree>
	<tree id="2" weight="0.1">
		<split>
			<feature> 534 </feature>
			<threshold> 0.34153587 </threshold>
			<split pos="left">
				<feature> 635 </feature>
				<threshold> 0.9941919 </threshold>
				<split pos="left">
					<feature> 369 </feature>
					<threshold> 0.39691684 </threshold>
					<split pos="left">
						<output> -0.9494279026985168 </output>
					</split>
					<split pos="right">
						<feature> 731 </feature>
						<threshold> 0.0 </threshold>
						<split pos="left">
							<feature> 62 </feature>
							<threshold> 0.5190063 </threshold>
							<split pos="left">
								<feature> 526 </feature>
								<threshold> 0.01665069 </threshold>
								<split pos="left">
									<feature> 128 </feature>
									<threshold> 0.6283908 </threshold>
									<split pos="left">
										<feature> 609 </feature>
										<threshold> 0.42583832 </threshold>
										<split pos="left">
											<output> 1.376275897026062 </output>
										</split>
										<split pos="right">
											<output> 1.7280750274658203 </output>
										</split>
									</split>
									<split pos="right">
										<output> 1.7660187482833862 </output>
									</split>
								</split>
								<split pos="right">
									<output> 1.768541693687439 </output>
								</split>
							</split>
							<split pos="right">
								<output> 1.7372792959213257 </output>
							</split>
						</split>
						<split pos="right">
							<output> 1.7691344022750854 </output>
						</split>
					</split>
				</split>
				<split pos="right">
					<output> 1.740130066871643 </output>
				</split>
			</split>
			<split pos="right">
				<feature> 361 </feature>
				<threshold> 0.0 </threshold>
				<split pos="left">
					<output> -0.11830947548151016 </output>
				</split>
				<split pos="right">
					<output> 1.7401713132858276 </output>
				</split>
			</split>
		</split>
	</tree>
	<tree id="3" weight="0.1">
		<split>
			<feature> 534 </feature>
			<threshold> 0.34153587 </threshold>
			<split pos="left">
				<feature> 635 </feature>
				<threshold> 0.9941919 </threshold>
				<split pos="left">
					<feature> 369 </feature>
					<threshold> 0.37020123 </threshold>
					<split pos="left">
						<output> -0.9705686569213867 </output>
					</split>
					<split pos="right">
						<feature> 194 </feature>
						<threshold> 0.703125 </threshold>
						<split pos="left">
							<feature> 731 </feature>
							<threshold> 0.0 </threshold>
							<split pos="left">
								<feature> 609 </feature>
								<threshold> 0.42583832 </threshold>
								<split pos="left">
									<feature> 722 </feature>
									<threshold> 0.0 </threshold>
									<split pos="left">
										<feature> 62 </feature>
										<threshold> 0.5190063 </threshold>
										<split pos="left">
											<output> 1.1987594366073608 </output>
										</split>
										<split pos="right">
											<output> 1.3105337619781494 </output>
										</split>
									</split>
									<split pos="right">
										<output> 1.6592622995376587 </output>
									</split>
								</split>
								<split pos="right">
									<output> 1.5446714162826538 </output>
								</split>
							</split>
							<split pos="right">
								<output> 1.5861703157424927 </output>
							</split>
						</split>
						<split pos="right">
							<output> 1.8179186582565308 </output>
						</split>
					</split>
				</split>
				<split pos="right">
					<output> 1.565708041191101 </output>
				</split>
			</split>
			<split pos="right">
				<feature> 136 </feature>
				<threshold> 0.17339088 </threshold>
				<split pos="left">
					<output> 1.5664578676223755 </output>
				</split>
				<split pos="right">
					<output> 0.07011524587869644 </output>
				</split>
			</split>
		</split>
	</tree>
	<tree id="4" weight="0.1">
		<split>
			<feature> 534 </feature>
			<threshold> 0.34153587 </threshold>
			<split pos="left">
				<feature> 635 </feature>
				<threshold> 0.9941919 </threshold>
				<split pos="left">
					<feature> 369 </feature>
					<threshold> 0.37020123 </threshold>
					<split pos="left">
						<output> -0.9031152725219727 </output>
					</split>
					<split pos="right">
						<feature> 722 </feature>
						<threshold> 0.0 </threshold>
						<split pos="left">
							<feature> 194 </feature>
							<threshold> 0.703125 </threshold>
							<split pos="left">
								<feature> 609 </feature>
								<threshold> 0.42583832 </threshold>
								<split pos="left">
									<feature> 62 </feature>
									<threshold> 0.5190063 </threshold>
									<split pos="left">
										<feature> 194 </feature>
										<threshold> 0.69140625 </threshold>
										<split pos="left">
											<output> 1.083433747291565 </output>
										</split>
										<split pos="right">
											<output> 1.473475694656372 </output>
										</split>
									</split>
									<split pos="right">
										<output> 1.1737812757492065 </output>
									</split>
								</split>
								<split pos="right">
									<output> 1.4111971855163574 </output>
								</split>
							</split>
							<split pos="right">
								<output> 1.619423508644104 </output>
							</split>
						</split>
						<split pos="right">
							<output> 1.5156563520431519 </output>
						</split>
					</split>
				</split>
				<split pos="right">
					<output> 1.439058542251587 </output>
				</split>
			</split>
			<split pos="right">
				<feature> 369 </feature>
				<threshold> 0.22135726 </threshold>
				<split pos="left">
					<output> 1.341225028038025 </output>
				</split>
				<split pos="right">
					<output> 1.4403080940246582 </output>
				</split>
			</split>
		</split>
	</tree>
	<tree id="5" weight="0.1">
		<split>
			<feature> 534 </feature>
			<threshold> 0.34153587 </threshold>
			<split pos="left">
				<feature> 635 </feature>
				<threshold> 0.9941919 </threshold>
				<split pos="left">
					<feature> 369 </feature>
					<threshold> 0.37020123 </threshold>
					<split pos="left">
						<output> -0.8081294298171997 </output>
					</split>
					<split pos="right">
						<feature> 722 </feature>
						<threshold> 0.0 </threshold>
						<split pos="left">
							<feature> 194 </feature>
							<threshold> 0.703125 </threshold>
							<split pos="left">
								<feature> 609 </feature>
								<threshold> 0.42583832 </threshold>
								<split pos="left">
									<feature> 62 </feature>
									<threshold> 0.5190063 </threshold>
									<split pos="left">
										<feature> 731 </feature>
										<threshold> 0.0 </threshold>
										<split pos="left">
											<output> 0.9795755743980408 </output>
										</split>
										<split pos="right">
											<output> 1.371961236000061 </output>
										</split>
									</split>
									<split pos="right">
										<output> 1.0641788244247437 </output>
									</split>
								</split>
								<split pos="right">
									<output> 1.3126393556594849 </output>
								</split>
							</split>
							<split pos="right">
								<output> 1.4818161725997925 </output>
							</split>
						</split>
						<split pos="right">
							<output> 1.4067317247390747 </output>
						</split>
					</split>
				</split>
				<split pos="right">
					<output> 1.3474321365356445 </output>
				</split>
			</split>
			<split pos="right">
				<feature> 369 </feature>
				<threshold> 0.22135726 </threshold>
				<split pos="left">
					<output> 1.1707119941711426 </output>
				</split>
				<split pos="right">
					<output> 1.349076509475708 </output>
				</split>
			</split>
		</split>
	</tree>
	<tree id="6" weight="0.1">
		<split>
			<feature> 534 </feature>
			<threshold> 0.34153587 </threshold>
			<split pos="left">
				<feature> 635 </feature>
				<threshold> 0.9941919 </threshold>
				<split pos="left">
					<feature> 369 </feature>
					<threshold> 0.23662326 </threshold>
					<split pos="left">
						<output> -1.123640775680542 </output>
					</split>
					<split pos="right">
						<feature> 722 </feature>
						<threshold> 0.0 </threshold>
						<split pos="left">
							<feature> 194 </feature>
							<threshold> 0.69140625 </threshold>
							<split pos="left">
								<feature> 609 </feature>
								<threshold> 0.42583832 </threshold>
								<split pos="left">
									<feature> 731 </feature>
									<threshold> 0.0 </threshold>
									<split pos="left">
										<feature> 62 </feature>
										<threshold> 0.5190063 </threshold>
										<split pos="left">
											<feature> 216 </feature>
											<threshold> 0.8611878 </threshold>
											<split pos="left">
												<output> 0.8959261775016785 </output>
											</split>
											<split pos="right">
												<output> 1.40886652469635 </output>
											</split>
										</split>
										<split pos="right">
											<output> 0.9801679849624634 </output>
										</split>
									</split>
									<split pos="right">
										<output> 1.2991365194320679 </output>
									</split>
								</split>
								<split pos="right">
									<output> 1.2380365133285522 </output>
								</split>
							</split>
							<split pos="right">
								<output> 1.3613035678863525 </output>
							</split>
						</split>
						<split pos="right">
							<output> 1.313492774963379 </output>
						</split>
					</split>
				</split>
				<split pos="right">
					<output> 1.2800981998443604 </output>
				</split>
			</split>
			<split pos="right">
				<output> 1.2756829261779785 </output>
			</split>
		</split>
	</tree>
	<tree id="7" weight="0.1">
		<split>
			<feature> 534 </feature>
			<threshold> 0.34153587 </threshold>
			<split pos="left">
				<feature> 635 </feature>
				<threshold> 0.9941919 </threshold>
				<split pos="left">
					<feature> 369 </feature>
					<threshold> 0.23662326 </threshold>
					<split pos="left">
						<output> -1.0414537191390991 </output>
					</split>
					<split pos="right">
						<feature> 722 </feature>
						<threshold> 0.0 </threshold>
						<split pos="left">
							<feature> 194 </feature>
							<threshold> 0.69140625 </threshold>
							<split pos="left">
								<feature> 609 </feature>
								<threshold> 0.42583832 </threshold>
								<split pos="left">
									<feature> 731 </feature>
									<threshold> 0.0 </threshold>
									<split pos="left">
										<feature> 62 </feature>
										<threshold> 0.5190063 </threshold>
										<split pos="left">
											<feature> 552 </feature>
											<threshold> 0.029236967 </threshold>
											<split pos="left">
												<output> 0.7859640717506409 </output>
											</split>
											<split pos="right">
												<output> 1.2198681831359863 </output>
											</split>
										</split>
										<split pos="right">
											<output> 0.8914213180541992 </output>
										</split>
									</split>
									<split pos="right">
										<output> 1.2350256443023682 </output>
									</split>
								</split>
								<split pos="right">
									<output> 1.1693954467773438 </output>
								</split>
							</split>
							<split pos="right">
								<output> 1.2782243490219116 </output>
							</split>
						</split>
						<split pos="right">
							<output> 1.2451092004776 </output>
						</split>
					</split>
				</split>
				<split pos="right">
					<output> 1.2207837104797363 </output>
				</split>
			</split>
			<split pos="right">
				<output> 1.2174993753433228 </output>
			</split>
		</split>
	</tree>
	<tree id="8" weight="0.1">
		<split>
			<feature> 534 </feature>
			<threshold> 0.34153587 </threshold>
			<split pos="left">
				<feature> 635 </feature>
				<threshold> 0.9941919 </threshold>
				<split pos="left">
					<feature> 369 </feature>
					<threshold> 0.23662326 </threshold>
					<split pos="left">
						<output> -0.9622234106063843 </output>
					</split>
					<split pos="right">
						<feature> 722 </feature>
						<threshold> 0.0 </threshold>
						<split pos="left">
							<feature> 194 </feature>
							<threshold> 0.69140625 </threshold>
							<split pos="left">
								<feature> 609 </feature>
								<threshold> 0.42583832 </threshold>
								<split pos="left">
									<feature> 731 </feature>
									<threshold> 0.0 </threshold>
									<split pos="left">
										<feature> 62 </feature>
										<threshold> 0.5190063 </threshold>
										<split pos="left">
											<feature> 552 </feature>
											<threshold> 0.029236967 </threshold>
											<split pos="left">
												<output> 0.705975353717804 </output>
											</split>
											<split pos="right">
												<output> 1.0584490299224854 </output>
											</split>
										</split>
										<split pos="right">
											<output> 0.810930073261261 </output>
										</split>
									</split>
									<split pos="right">
										<output> 1.187444806098938 </output>
									</split>
								</split>
								<split pos="right">
									<output> 1.1146613359451294 </output>
								</split>
							</split>
							<split pos="right">
								<output> 1.21586275100708 </output>
							</split>
						</split>
						<split pos="right">
							<output> 1.1932487487792969 </output>
						</split>
					</split>
				</split>
				<split pos="right">
					<output> 1.176676869392395 </output>
				</split>
			</split>
			<split pos="right">
				<output> 1.17377769947052 </output>
			</split>
		</split>
	</tree>
	<tree id="9" weight="0.1">
		<split>
			<feature> 534 </feature>
			<threshold> 0.34153587 </threshold>
			<split pos="left">
				<feature> 635 </feature>
				<threshold> 0.9941919 </threshold>
				<split pos="left">
					<feature> 369 </feature>
					<threshold> 0.22517376 </threshold>
					<split pos="left">
						<output> -0.9173226952552795 </output>
					</split>
					<split pos="right">
						<feature> 722 </feature>
						<threshold> 0.0 </threshold>
						<split pos="left">
							<feature> 194 </feature>
							<threshold> 0.69140625 </threshold>
							<split pos="left">
								<feature> 609 </feature>
								<threshold> 0.42583832 </threshold>
								<split pos="left">
									<feature> 731 </feature>
									<threshold> 0.0 </threshold>
									<split pos="left">
										<feature> 62 </feature>
										<threshold> 0.5190063 </threshold>
										<split pos="left">
											<feature> 552 </feature>
											<threshold> 0.029236967 </threshold>
											<split pos="left">
												<output> 0.6400454044342041 </output>
											</split>
											<split pos="right">
												<output> 0.9806430339813232 </output>
											</split>
										</split>
										<split pos="right">
											<output> 0.7375791072845459 </output>
										</split>
									</split>
									<split pos="right">
										<output> 1.1514784097671509 </output>
									</split>
								</split>
								<split pos="right">
									<output> 1.069172978401184 </output>
								</split>
							</split>
							<split pos="right">
								<output> 1.1661877632141113 </output>
							</split>
						</split>
						<split pos="right">
							<output> 1.1525439023971558 </output>
						</split>
					</split>
				</split>
				<split pos="right">
					<output> 1.143316388130188 </output>
				</split>
			</split>
			<split pos="right">
				<output> 1.1401973962783813 </output>
			</split>
		</split>
	</tree>
	<tree id="10" weight="0.1">
		<split>
			<feature> 534 </feature>
			<threshold> 0.34153587 </threshold>
			<split pos="left">
				<feature> 635 </feature>
				<threshold> 0.9941919 </threshold>
				<split pos="left">
					<feature> 369 </feature>
					<threshold> 0.22517376 </threshold>
					<split pos="left">
						<output> -0.8573517203330994 </output>
					</split>
					<split pos="right">
						<feature> 722 </feature>
						<threshold> 0.0 </threshold>
						<split pos="left">
							<feature> 194 </feature>
							<threshold> 0.69140625 </threshold>
							<split pos="left">
								<feature> 609 </feature>
								<threshold> 0.42583832 </threshold>
								<split pos="left">
									<feature> 731 </feature>
									<threshold> 0.0 </threshold>
									<split pos="left">
										<feature> 552 </feature>
										<threshold> 0.029236967 </threshold>
										<split pos="left">
											<feature> 62 </feature>
											<threshold> 0.5190063 </threshold>
											<split pos="left">
												<output> 0.5742443799972534 </output>
											</split>
											<split pos="right">
												<output> 0.6686525940895081 </output>
											</split>
										</split>
										<split pos="right">
											<output> 0.9136004447937012 </output>
										</split>
									</split>
									<split pos="right">
										<output> 1.1235368251800537 </output>
									</split>
								</split>
								<split pos="right">
									<output> 1.0291869640350342 </output>
								</split>
							</split>
							<split pos="right">
								<output> 1.125577449798584 </output>
							</split>
						</split>
						<split pos="right">
							<output> 1.1393002271652222 </output>
						</split>
					</split>
				</split>
				<split pos="right">
					<output> 1.1174441576004028 </output>
				</split>
			</split>
			<split pos="right">
				<output> 1.1158454418182373 </output>
			</split>
		</split>
	</tree>
	<tree id="11" weight="0.1">
		<split>
			<feature> 534 </feature>
			<threshold> 0.34153587 </threshold>
			<split pos="left">
				<feature> 635 </feature>
				<threshold> 0.9941919 </threshold>
				<split pos="left">
					<feature> 369 </feature>
					<threshold> 0.22517376 </threshold>
					<split pos="left">
						<output> -0.7987148761749268 </output>
					</split>
					<split pos="right">
						<feature> 722 </feature>
						<threshold> 0.021963146 </threshold>
						<split pos="left">
							<feature> 194 </feature>
							<threshold> 0.69140625 </threshold>
							<split pos="left">
								<feature> 609 </feature>
								<threshold> 0.42583832 </threshold>
								<split pos="left">
									<feature> 731 </feature>
									<threshold> 0.0 </threshold>
									<split pos="left">
										<feature> 552 </feature>
										<threshold> 0.029236967 </threshold>
										<split pos="left">
											<feature> 62 </feature>
											<threshold> 0.5190063 </threshold>
											<split pos="left">
												<output> 0.5190495848655701 </output>
											</split>
											<split pos="right">
												<output> 0.6031705141067505 </output>
											</split>
										</split>
										<split pos="right">
											<output> 0.8513022065162659 </output>
										</split>
									</split>
									<split pos="right">
										<output> 1.101736068725586 </output>
									</split>
								</split>
								<split pos="right">
									<output> 0.9929090738296509 </output>
								</split>
							</split>
							<split pos="right">
								<output> 1.0918337106704712 </output>
							</split>
						</split>
						<split pos="right">
							<output> 1.1132354736328125 </output>
						</split>
					</split>
				</split>
				<split pos="right">
					<output> 1.0973018407821655 </output>
				</split>
			</split>
			<split pos="right">
				<output> 1.094232439994812 </output>
			</split>
		</split>
	</tree>
	<tree id="12" weight="0.1">
		<split>
			<feature> 534 </feature>
			<threshold> 0.34153587 </threshold>
			<split pos="left">
				<feature> 635 </feature>
				<threshold> 0.9941919 </threshold>
				<split pos="left">
					<feature> 369 </feature>
					<threshold> 0.22517376 </threshold>
					<split pos="left">
						<output> -0.7437893152236938 </output>
					</split>
					<split pos="right">
						<feature> 722 </feature>
						<threshold> 0.0 </threshold>
						<split pos="left">
							<feature> 194 </feature>
							<threshold> 0.69140625 </threshold>
							<split pos="left">
								<feature> 609 </feature>
								<threshold> 0.42583832 </threshold>
								<split pos="left">
									<feature> 731 </feature>
									<threshold> 0.0 </threshold>
									<split pos="left">
										<feature> 19 </feature>
										<threshold> 0.831602 </threshold>
										<split pos="left">
											<feature> 552 </feature>
											<threshold> 0.22130214 </threshold>
											<split pos="left">
												<output> 0.47234970331192017 </output>
											</split>
											<split pos="right">
												<output> 0.986223042011261 </output>
											</split>
										</split>
										<split pos="right">
											<output> 1.2887356281280518 </output>
										</split>
									</split>
									<split pos="right">
										<output> 1.0845574140548706 </output>
									</split>
								</split>
								<split pos="right">
									<output> 0.9587926268577576 </output>
								</split>
							</split>
							<split pos="right">
								<output> 1.0626587867736816 </output>
							</split>
						</split>
						<split pos="right">
							<output> 1.0919833183288574 </output>
						</split>
					</split>
				</split>
				<split pos="right">
					<output> 1.0814872980117798 </output>
				</split>
			</split>
			<split pos="right">
				<output> 1.076271653175354 </output>
			</split>
		</split>
	</tree>
	<tree id="13" weight="0.1">
		<split>
			<feature> 534 </feature>
			<threshold> 0.34153587 </threshold>
			<split pos="left">
				<feature> 635 </feature>
				<threshold> 0.9941919 </threshold>
				<split pos="left">
					<feature> 369 </feature>
					<threshold> 0.18319225 </threshold>
					<split pos="left">
						<output> -0.7395207285881042 </output>
					</split>
					<split pos="right">
						<feature> 722 </feature>
						<threshold> 0.0 </threshold>
						<split pos="left">
							<feature> 194 </feature>
							<threshold> 0.69140625 </threshold>
							<split pos="left">
								<feature> 19 </feature>
								<threshold> 0.831602 </threshold>
								<split pos="left">
									<feature> 609 </feature>
									<threshold> 0.42583832 </threshold>
									<split pos="left">
										<feature> 731 </feature>
										<threshold> 0.0 </threshold>
										<split pos="left">
											<feature> 552 </feature>
											<threshold> 0.22130214 </threshold>
											<split pos="left">
												<output> 0.4318476915359497 </output>
											</split>
											<split pos="right">
												<output> 0.849037230014801 </output>
											</split>
										</split>
										<split pos="right">
											<output> 1.0708884000778198 </output>
										</split>
									</split>
									<split pos="right">
										<output> 0.9256787300109863 </output>
									</split>
								</split>
								<split pos="right">
									<output> 1.2861411571502686 </output>
								</split>
							</split>
							<split pos="right">
								<output> 1.033392071723938 </output>
							</split>
						</split>
						<split pos="right">
							<output> 1.0725535154342651 </output>
						</split>
					</split>
				</split>
				<split pos="right">
					<output> 1.0689705610275269 </output>
				</split>
			</split>
			<split pos="right">
				<output> 1.060815691947937 </output>
			</split>
		</split>
	</tree>
	<tree id="14" weight="0.1">
		<split>
			<feature> 534 </feature>
			<threshold> 0.34153587 </threshold>
			<split pos="left">
				<feature> 635 </feature>
				<threshold> 0.9941919 </threshold>
				<split pos="left">
					<feature> 369 </feature>
					<threshold> 0.18319225 </threshold>
					<split pos="left">
						<output> -0.7113531231880188 </output>
					</split>
					<split pos="right">
						<feature> 722 </feature>
						<threshold> 0.021963146 </threshold>
						<split pos="left">
							<feature> 194 </feature>
							<threshold> 0.69140625 </threshold>
							<split pos="left">
								<feature> 19 </feature>
								<threshold> 0.831602 </threshold>
								<split pos="left">
									<feature> 609 </feature>
									<threshold> 0.42583832 </threshold>
									<split pos="left">
										<feature> 731 </feature>
										<threshold> 0.0 </threshold>
										<split pos="left">
											<feature> 552 </feature>
											<threshold> 0.22130214 </threshold>
											<split pos="left">
												<output> 0.4087020456790924 </output>
											</split>
											<split pos="right">
												<output> 0.824816882610321 </output>
											</split>
										</split>
										<split pos="right">
											<output> 1.05971097946167 </output>
										</split>
									</split>
									<split pos="right">
										<output> 0.8917846083641052 </output>
									</split>
								</split>
								<split pos="right">
									<output> 1.2753889560699463 </output>
								</split>
							</split>
							<split pos="right">
								<output> 1.0099166631698608 </output>
							</split>
						</split>
						<split pos="right">
							<output> 1.05685293674469 </output>
						</split>
					</split>
				</split>
				<split pos="right">
					<output> 1.0588274002075195 </output>
				</split>
			</split>
			<split pos="right">
				<output> 1.047315001487732 </output>
			</split>
		</split>
	</tree>
	<tree id="15" weight="0.1">
		<split>
			<feature> 534 </feature>
			<threshold> 0.34153587 </threshold>
			<split pos="left">
				<feature> 635 </feature>
				<threshold> 0.9941919 </threshold>
				<split pos="left">
					<feature> 369 </feature>
					<threshold> 0.14502725 </threshold>
					<split pos="left">
						<output> -0.686998724937439 </output>
					</split>
					<split pos="right">
						<feature> 722 </feature>
						<threshold> 0.0 </threshold>
						<split pos="left">
							<feature> 194 </feature>
							<threshold> 0.6953125 </threshold>
							<split pos="left">
								<feature> 19 </feature>
								<threshold> 0.831602 </threshold>
								<split pos="left">
									<feature> 609 </feature>
									<threshold> 0.42583832 </threshold>
									<split pos="left">
										<feature> 216 </feature>
										<threshold> 0.8611878 </threshold>
										<split pos="left">
											<feature> 552 </feature>
											<threshold> 0.22130214 </threshold>
											<split pos="left">
												<output> 0.3707039952278137 </output>
											</split>
											<split pos="right">
												<output> 0.7595926523208618 </output>
											</split>
										</split>
										<split pos="right">
											<output> 1.030480146408081 </output>
										</split>
									</split>
									<split pos="right">
										<output> 0.8570531606674194 </output>
									</split>
								</split>
								<split pos="right">
									<output> 1.265397310256958 </output>
								</split>
							</split>
							<split pos="right">
								<output> 0.9828954935073853 </output>
							</split>
						</split>
						<split pos="right">
							<output> 1.0382802486419678 </output>
						</split>
					</split>
				</split>
				<split pos="right">
					<output> 1.0506759881973267 </output>
				</split>
			</split>
			<split pos="right">
				<output> 0.9931443929672241 </output>
			</split>
		</split>
	</tree>
	<tree id="16" weight="0.1">
		<split>
			<feature> 534 </feature>
			<threshold> 0.34153587 </threshold>
			<split pos="left">
				<feature> 635 </feature>
				<threshold> 0.9941919 </threshold>
				<split pos="left">
					<feature> 369 </feature>
					<threshold> 0.14502725 </threshold>
					<split pos="left">
						<output> -0.6505436897277832 </output>
					</split>
					<split pos="right">
						<feature> 722 </feature>
						<threshold> 0.0 </threshold>
						<split pos="left">
							<feature> 194 </feature>
							<threshold> 0.6953125 </threshold>
							<split pos="left">
								<feature> 19 </feature>
								<threshold> 0.831602 </threshold>
								<split pos="left">
									<feature> 609 </feature>
									<threshold> 0.42583832 </threshold>
									<split pos="left">
										<feature> 255 </feature>
										<threshold> 0.672914 </threshold>
										<split pos="left">
											<feature> 276 </feature>
											<threshold> 0.25447875 </threshold>
											<split pos="left">
												<output> -0.8576608896255493 </output>
											</split>
											<split pos="right">
												<output> 0.4229666590690613 </output>
											</split>
										</split>
										<split pos="right">
											<output> -4.065614700317383 </output>
										</split>
									</split>
									<split pos="right">
										<output> 0.8208622932434082 </output>
									</split>
								</split>
								<split pos="right">
									<output> 1.2552472352981567 </output>
								</split>
							</split>
							<split pos="right">
								<output> 0.9597629308700562 </output>
							</split>
						</split>
						<split pos="right">
							<output> 1.0258958339691162 </output>
						</split>
					</split>
				</split>
				<split pos="right">
					<output> 1.0441418886184692 </output>
				</split>
			</split>
			<split pos="right">
				<output> 0.9749160408973694 </output>
			</split>
		</split>
	</tree>
	<tree id="17" weight="0.1">
		<split>
			<feature> 534 </feature>
			<threshold> 0.34153587 </threshold>
			<split pos="left">
				<feature> 635 </feature>
				<threshold> 0.9941919 </threshold>
				<split pos="left">
					<feature> 369 </feature>
					<threshold> 0.14502725 </threshold>
					<split pos="left">
						<output> -0.6149458885192871 </output>
					</split>
					<split pos="right">
						<feature> 722 </feature>
						<threshold> 0.0 </threshold>
						<split pos="left">
							<feature> 534 </feature>
							<threshold> 0.113118365 </threshold>
							<split pos="left">
								<feature> 194 </feature>
								<threshold> 0.6953125 </threshold>
								<split pos="left">
									<feature> 19 </feature>
									<threshold> 0.831602 </threshold>
									<split pos="left">
										<feature> 609 </feature>
										<threshold> 0.42583832 </threshold>
										<split pos="left">
											<feature> 369 </feature>
											<threshold> 0.4885132 </threshold>
											<split pos="left">
												<output> 0.2262047827243805 </output>
											</split>
											<split pos="right">
												<output> 0.5825765132904053 </output>
											</split>
										</split>
										<split pos="right">
											<output> 0.7822758555412292 </output>
										</split>
									</split>
									<split pos="right">
										<output> 1.2427572011947632 </output>
									</split>
								</split>
								<split pos="right">
									<output> 0.897261381149292 </output>
								</split>
							</split>
							<split pos="right">
								<output> 1.307063102722168 </output>
							</split>
						</split>
						<split pos="right">
							<output> 1.0017895698547363 </output>
						</split>
					</split>
				</split>
				<split pos="right">
					<output> 1.0389881134033203 </output>
				</split>
			</split>
			<split pos="right">
				<output> 0.956882655620575 </output>
			</split>
		</split>
	</tree>
	<tree id="18" weight="0.1">
		<split>
			<feature> 534 </feature>
			<threshold> 0.34153587 </threshold>
			<split pos="left">
				<feature> 369 </feature>
				<threshold> 0.4885132 </threshold>
				<split pos="left">
					<feature> 635 </feature>
					<threshold> 0.9941919 </threshold>
					<split pos="left">
						<feature> 1 </feature>
						<threshold> 0.9498328 </threshold>
						<split pos="left">
							<feature> 369 </feature>
							<threshold> 0.114495225 </threshold>
							<split pos="left">
								<output> -0.5986903309822083 </output>
							</split>
							<split pos="right">
								<feature> 534 </feature>
								<threshold> 0.113118365 </threshold>
								<split pos="left">
									<feature> 62 </feature>
									<threshold> 0.5190063 </threshold>
									<split pos="left">
										<output> 0.13646657764911652 </output>
									</split>
									<split pos="right">
										<output> 0.5044759511947632 </output>
									</split>
								</split>
								<split pos="right">
									<output> 1.022004246711731 </output>
								</split>
							</split>
						</split>
						<split pos="right">
							<output> 1.0798166990280151 </output>
						</split>
					</split>
					<split pos="right">
						<output> 1.0347869396209717 </output>
					</split>
				</split>
				<split pos="right">
					<feature> 517 </feature>
					<threshold> 0.16634572 </threshold>
					<split pos="left">
						<feature> 429 </feature>
						<threshold> 0.00390625 </threshold>
						<split pos="left">
							<output> 0.5238358974456787 </output>
						</split>
						<split pos="right">
							<output> 1.149581789970398 </output>
						</split>
					</split>
					<split pos="right">
						<output> 1.3341243267059326 </output>
					</split>
				</split>
			</split>
			<split pos="right">
				<output> 0.93534255027771 </output>
			</split>
		</split>
	</tree>
	<tree id="19" weight="0.1">
		<split>
			<feature> 534 </feature>
			<threshold> 0.34153587 </threshold>
			<split pos="left">
				<feature> 369 </feature>
				<threshold> 0.4885132 </threshold>
				<split pos="left">
					<feature> 635 </feature>
					<threshold> 0.9941919 </threshold>
					<split pos="left">
						<feature> 1 </feature>
						<threshold> 0.9498328 </threshold>
						<split pos="left">
							<feature> 369 </feature>
							<threshold> 0.114495225 </threshold>
							<split pos="left">
								<output> -0.5644667744636536 </output>
							</split>
							<split pos="right">
								<feature> 534 </feature>
								<threshold> 0.113118365 </threshold>
								<split pos="left">
									<feature> 194 </feature>
									<threshold> 0.703125 </threshold>
									<split pos="left">
										<feature> 62 </feature>
										<threshold> 0.5190063 </threshold>
										<split pos="left">
											<output> 0.10490907728672028 </output>
										</split>
										<split pos="right">
											<output> 0.4514656066894531 </output>
										</split>
									</split>
									<split pos="right">
										<output> 0.8285638093948364 </output>
									</split>
								</split>
								<split pos="right">
									<output> 0.9683158993721008 </output>
								</split>
							</split>
						</split>
						<split pos="right">
							<output> 1.0034923553466797 </output>
						</split>
					</split>
					<split pos="right">
						<output> 1.0308125019073486 </output>
					</split>
				</split>
				<split pos="right">
					<feature> 429 </feature>
					<threshold> 0.00390625 </threshold>
					<split pos="left">
						<output> 0.49956250190734863 </output>
					</split>
					<split pos="right">
						<output> 1.108105182647705 </output>
					</split>
				</split>
			</split>
			<split pos="right">
				<output> 0.9134722948074341 </output>
			</split>
		</split>
	</tree>
	<tree id="20" weight="0.1">
		<split>
			<feature> 534 </feature>
			<threshold> 0.34153587 </threshold>
			<split pos="left">
				<feature> 369 </feature>
				<threshold> 0.4885132 </threshold>
				<split pos="left">
					<feature> 635 </feature>
					<threshold> 0.9941919 </threshold>
					<split pos="left">
						<feature> 1 </feature>
						<threshold> 0.9498328 </threshold>
						<split pos="left">
							<feature> 563 </feature>
							<threshold> 0.46484375 </threshold>
							<split pos="left">
								<feature> 371 </feature>
								<threshold> 0.0 </threshold>
								<split pos="left">
									<feature> 432 </feature>
									<threshold> 0.515625 </threshold>
									<split pos="left">
										<feature> 417 </feature>
										<threshold> 0.67451376 </threshold>
										<split pos="left">
											<output> -0.4092698395252228 </output>
										</split>
										<split pos="right">
											<output> 3.9143691062927246 </output>
										</split>
									</split>
									<split pos="right">
										<output> 2.7003531455993652 </output>
									</split>
								</split>
								<split pos="right">
									<output> 0.20887723565101624 </output>
								</split>
							</split>
							<split pos="right">
								<output> 1.9582339525222778 </output>
							</split>
						</split>
						<split pos="right">
							<output> 0.9828956127166748 </output>
						</split>
					</split>
					<split pos="right">
						<output> 1.0274440050125122 </output>
					</split>
				</split>
				<split pos="right">
					<feature> 429 </feature>
					<threshold> 0.00390625 </threshold>
					<split pos="left">
						<output> 0.46281132102012634 </output>
					</split>
					<split pos="right">
						<output> 1.088275671005249 </output>
					</split>
				</split>
			</split>
			<split pos="right">
				<output> 0.8903722167015076 </output>
			</split>
		</split>
	</tree>
	<tree id="21" weight="0.1">
		<split>
			<feature> 432 </feature>
			<threshold> 0.52734375 </threshold>
			<split pos="left">
				<feature> 563 </feature>
				<threshold> 0.46484375 </threshold>
				<split pos="left">
					<feature> 610 </feature>
					<threshold> 0.2298105 </threshold>
					<split pos="left">
						<feature> 534 </feature>
						<threshold> 0.34153587 </threshold>
						<split pos="left">
							<feature> 369 </feature>
							<threshold> 0.4885132 </threshold>
							<split pos="left">
								<feature> 635 </feature>
								<threshold> 0.9941919 </threshold>
								<split pos="left">
									<feature> 371 </feature>
									<threshold> 0.0 </threshold>
									<split pos="left">
										<feature> 467 </feature>
										<threshold> 0.3274275 </threshold>
										<split pos="left">
											<output> -0.4841872453689575 </output>
										</split>
										<split pos="right">
											<output> 1.4625444412231445 </output>
										</split>
									</split>
									<split pos="right">
										<output> 0.24807925522327423 </output>
									</split>
								</split>
								<split pos="right">
									<output> 1.0240914821624756 </output>
								</split>
							</split>
							<split pos="right">
								<output> 0.4902726411819458 </output>
							</split>
						</split>
						<split pos="right">
							<output> 0.8839436173439026 </output>
						</split>
					</split>
					<split pos="right">
						<output> 1.771728754043579 </output>
					</split>
				</split>
				<split pos="right">
					<output> 1.7308530807495117 </output>
				</split>
			</split>
			<split pos="right">
				<feature> 308 </feature>
				<threshold> -1.1444665 </threshold>
				<split pos="left">
					<output> -1.6399332284927368 </output>
				</split>
				<split pos="right">
					<output> 1.7540760040283203 </output>
				</split>
			</split>
		</split>
	</tree>
	<tree id="22" weight="0.1">
		<split>
			<feature> 432 </feature>
			<threshold> 0.52734375 </threshold>
			<split pos="left">
				<feature> 563 </feature>
				<threshold> 0.46484375 </threshold>
				<split pos="left">
					<feature> 610 </feature>
					<threshold> 0.2298105 </threshold>
					<split pos="left">
						<feature> 369 </feature>
						<threshold> 0.50377923 </threshold>
						<split pos="left">
							<feature> 534 </feature>
							<threshold> 0.34153587 </threshold>
							<split pos="left">
								<feature> 635 </feature>
								<threshold> 0.9941919 </threshold>
								<split pos="left">
									<feature> 369 </feature>
									<threshold> 0.114495225 </threshold>
									<split pos="left">
										<output> -0.6035053730010986 </output>
									</split>
									<split pos="right">
										<feature> 1 </feature>
										<threshold> 0.9397993 </threshold>
										<split pos="left">
											<output> 0.14818844199180603 </output>
										</split>
										<split pos="right">
											<output> 0.9742506742477417 </output>
										</split>
									</split>
								</split>
								<split pos="right">
									<output> 1.021014928817749 </output>
								</split>
							</split>
							<split pos="right">
								<output> 0.8556323051452637 </output>
							</split>
						</split>
						<split pos="right">
							<output> 0.5161983370780945 </output>
						</split>
					</split>
					<split pos="right">
						<output> 1.6007118225097656 </output>
					</split>
				</split>
				<split pos="right">
					<feature> 19 </feature>
					<threshold> 0.5068369 </threshold>
					<split pos="left">
						<output> 0.8961447477340698 </output>
					</split>
					<split pos="right">
						<output> 1.6310845613479614 </output>
					</split>
				</split>
			</split>
			<split pos="right">
				<output> 1.5806692838668823 </output>
			</split>
		</split>
	</tree>
	<tree id="23" weight="0.1">
		<split>
			<feature> 432 </feature>
			<threshold> 0.52734375 </threshold>
			<split pos="left">
				<feature> 563 </feature>
				<threshold> 0.46484375 </threshold>
				<split pos="left">
					<feature> 610 </feature>
					<threshold> 0.2298105 </threshold>
					<split pos="left">
						<feature> 369 </feature>
						<threshold> 0.4885132 </threshold>
						<split pos="left">
							<feature> 534 </feature>
							<threshold> 0.34153587 </threshold>
							<split pos="left">
								<feature> 635 </feature>
								<threshold> 0.9941919 </threshold>
								<split pos="left">
									<feature> 371 </feature>
									<threshold> 0.0 </threshold>
									<split pos="left">
										<feature> 467 </feature>
										<threshold> 0.3274275 </threshold>
										<split pos="left">
											<output> -0.45097899436950684 </output>
										</split>
										<split pos="right">
											<output> 1.370354175567627 </output>
										</split>
									</split>
									<split pos="right">
										<output> 0.2139081209897995 </output>
									</split>
								</split>
								<split pos="right">
									<output> 1.0188863277435303 </output>
								</split>
							</split>
							<split pos="right">
								<output> 0.8298215270042419 </output>
							</split>
						</split>
						<split pos="right">
							<feature> 429 </feature>
							<threshold> 0.00390625 </threshold>
							<split pos="left">
								<output> 0.40925973653793335 </output>
							</split>
							<split pos="right">
								<output> 1.0314912796020508 </output>
							</split>
						</split>
					</split>
					<split pos="right">
						<output> 1.4506715536117554 </output>
					</split>
				</split>
				<split pos="right">
					<output> 1.462971806526184 </output>
				</split>
			</split>
			<split pos="right">
				<output> 1.4627795219421387 </output>
			</split>
		</split>
	</tree>
	<tree id="24" weight="0.1">
		<split>
			<feature> 563 </feature>
			<threshold> 0.46484375 </threshold>
			<split pos="left">
				<feature> 432 </feature>
				<threshold> 0.52734375 </threshold>
				<split pos="left">
					<feature> 610 </feature>
					<threshold> 0.2298105 </threshold>
					<split pos="left">
						<feature> 369 </feature>
						<threshold> 0.50377923 </threshold>
						<split pos="left">
							<feature> 534 </feature>
							<threshold> 0.34153587 </threshold>
							<split pos="left">
								<feature> 635 </feature>
								<threshold> 0.9941919 </threshold>
								<split pos="left">
									<feature> 369 </feature>
									<threshold> 0.114495225 </threshold>
									<split pos="left">
										<output> -0.5510751008987427 </output>
									</split>
									<split pos="right">
										<feature> 486 </feature>
										<threshold> 0.9350557 </threshold>
										<split pos="left">
											<output> 0.1358213573694229 </output>
										</split>
										<split pos="right">
											<output> -2.6850812435150146 </output>
										</split>
									</split>
								</split>
								<split pos="right">
									<output> 1.0165423154830933 </output>
								</split>
							</split>
							<split pos="right">
								<output> 0.7988506555557251 </output>
							</split>
						</split>
						<split pos="right">
							<output> 0.44657763838768005 </output>
						</split>
					</split>
					<split pos="right">
						<output> 1.3479323387145996 </output>
					</split>
				</split>
				<split pos="right">
					<output> 1.38228440284729 </output>
				</split>
			</split>
			<split pos="right">
				<feature> 107 </feature>
				<threshold> -0.109415054 </threshold>
				<split pos="left">
					<output> 1.4176366329193115 </output>
				</split>
				<split pos="right">
					<output> 0.7022899389266968 </output>
				</split>
			</split>
		</split>
	</tree>
	<tree id="25" weight="0.1">
		<split>
			<feature> 563 </feature>
			<threshold> 0.46484375 </threshold>
			<split pos="left">
				<feature> 610 </feature>
				<threshold> 0.2298105 </threshold>
				<split pos="left">
					<feature> 432 </feature>
					<threshold> 0.52734375 </threshold>
					<split pos="left">
						<feature> 369 </feature>
						<threshold> 0.50377923 </threshold>
						<split pos="left">
							<feature> 534 </feature>
							<threshold> 0.34153587 </threshold>
							<split pos="left">
								<feature> 360 </feature>
								<threshold> 0.015625 </threshold>
								<split pos="left">
									<feature> 95 </feature>
									<threshold> -4.4118433 </threshold>
									<split pos="left">
										<output> 3.8414952754974365 </output>
									</split>
									<split pos="right">
										<feature> 1 </feature>
										<threshold> 0.9498328 </threshold>
										<split pos="left">
											<output> -0.1695229411125183 </output>
										</split>
										<split pos="right">
											<output> 0.9011929631233215 </output>
										</split>
									</split>
								</split>
								<split pos="right">
									<output> -1.1600065231323242 </output>
								</split>
							</split>
							<split pos="right">
								<output> 0.7701858878135681 </output>
							</split>
						</split>
						<split pos="right">
							<output> 0.40986794233322144 </output>
						</split>
					</split>
					<split pos="right">
						<output> 1.3118950128555298 </output>
					</split>
				</split>
				<split pos="right">
					<output> 1.27963387966156 </output>
				</split>
			</split>
			<split pos="right">
				<feature> 101 </feature>
				<threshold> -0.6246128 </threshold>
				<split pos="left">
					<output> 1.3425147533416748 </output>
				</split>
				<split pos="right">
					<output> 0.6441989541053772 </output>
				</split>
			</split>
		</split>
	</tree>
	<tree id="26" weight="0.1">
		<split>
			<feature> 563 </feature>
			<threshold> 0.46484375 </threshold>
			<split pos="left">
				<feature> 610 </feature>
				<threshold> 0.2298105 </threshold>
				<split pos="left">
					<feature> 432 </feature>
					<threshold> 0.52734375 </threshold>
					<split pos="left">
						<feature> 369 </feature>
						<threshold> 0.4885132 </threshold>
						<split pos="left">
							<feature> 534 </feature>
							<threshold> 0.34153587 </threshold>
							<split pos="left">
								<feature> 372 </feature>
								<threshold> 0.01953125 </threshold>
								<split pos="left">
									<feature> 369 </feature>
									<threshold> 0.114495225 </threshold>
									<split pos="left">
										<output> -0.6573514938354492 </output>
									</split>
									<split pos="right">
										<output> 0.11896809190511703 </output>
									</split>
								</split>
								<split pos="right">
									<output> 0.44788527488708496 </output>
								</split>
							</split>
							<split pos="right">
								<output> 0.7413300275802612 </output>
							</split>
						</split>
						<split pos="right">
							<output> 0.37237080931663513 </output>
						</split>
					</split>
					<split pos="right">
						<output> 1.2641717195510864 </output>
					</split>
				</split>
				<split pos="right">
					<feature> 307 </feature>
					<threshold> 0.1561702 </threshold>
					<split pos="left">
						<output> -0.6934432983398438 </output>
					</split>
					<split pos="right">
						<output> 1.331329107284546 </output>
					</split>
				</split>
			</split>
			<split pos="right">
				<feature> 24 </feature>
				<threshold> 0.41800383 </threshold>
				<split pos="left">
					<output> 1.2794450521469116 </output>
				</split>
				<split pos="right">
					<output> 0.5914325714111328 </output>
				</split>
			</split>
		</split>
	</tree>
	<tree id="27" weight="0.1">
		<split>
			<feature> 563 </feature>
			<threshold> 0.46484375 </threshold>
			<split pos="left">
				<feature> 610 </feature>
				<threshold> 0.2298105 </threshold>
				<split pos="left">
					<feature> 432 </feature>
					<threshold> 0.52734375 </threshold>
					<split pos="left">
						<feature> 369 </feature>
						<threshold> 0.4885132 </threshold>
						<split pos="left">
							<feature> 534 </feature>
							<threshold> 0.34153587 </threshold>
							<split pos="left">
								<feature> 372 </feature>
								<threshold> 0.01953125 </threshold>
								<split pos="left">
									<feature> 635 </feature>
									<threshold> 0.9941919 </threshold>
									<split pos="left">
										<feature> 1 </feature>
										<threshold> 0.9498328 </threshold>
										<split pos="left">
											<feature> 546 </feature>
											<threshold> 0.13671875 </threshold>
											<split pos="left">
												<output> -0.323736310005188 </output>
											</split>
											<split pos="right">
												<output> 1.4549272060394287 </output>
											</split>
										</split>
										<split pos="right">
											<output> 0.8191524744033813 </output>
										</split>
									</split>
									<split pos="right">
										<output> 1.0158811807632446 </output>
									</split>
								</split>
								<split pos="right">
									<output> 0.46734610199928284 </output>
								</split>
							</split>
							<split pos="right">
								<output> 0.709147036075592 </output>
							</split>
						</split>
						<split pos="right">
							<output> 0.34899571537971497 </output>
						</split>
					</split>
					<split pos="right">
						<output> 1.2118852138519287 </output>
					</split>
				</split>
				<split pos="right">
					<output> 1.127768874168396 </output>
				</split>
			</split>
			<split pos="right">
				<output> 1.1962534189224243 </output>
			</split>
		</split>
	</tree>
	<tree id="28" weight="0.1">
		<split>
			<feature> 563 </feature>
			<threshold> 0.46484375 </threshold>
			<split pos="left">
				<feature> 610 </feature>
				<threshold> 0.2298105 </threshold>
				<split pos="left">
					<feature> 432 </feature>
					<threshold> 0.52734375 </threshold>
					<split pos="left">
						<feature> 369 </feature>
						<threshold> 0.4885132 </threshold>
						<split pos="left">
							<feature> 534 </feature>
							<threshold> 0.34153587 </threshold>
							<split pos="left">
								<feature> 372 </feature>
								<threshold> 0.01953125 </threshold>
								<split pos="left">
									<feature> 371 </feature>
									<threshold> 0.0 </threshold>
									<split pos="left">
										<output> -0.46094459295272827 </output>
									</split>
									<split pos="right">
										<output> 0.2005389928817749 </output>
									</split>
								</split>
								<split pos="right">
									<output> 0.43063274025917053 </output>
								</split>
							</split>
							<split pos="right">
								<output> 0.6779952049255371 </output>
							</split>
						</split>
						<split pos="right">
							<feature> 429 </feature>
							<threshold> 0.00390625 </threshold>
							<split pos="left">
								<output> 0.2779077887535095 </output>
							</split>
							<split pos="right">
								<output> 0.9817703366279602 </output>
							</split>
						</split>
					</split>
					<split pos="right">
						<output> 1.173831820487976 </output>
					</split>
				</split>
				<split pos="right">
					<output> 1.0667256116867065 </output>
				</split>
			</split>
			<split pos="right">
				<feature> 189 </feature>
				<threshold> -2.54492 </threshold>
				<split pos="left">
					<output> 1.2015604972839355 </output>
				</split>
				<split pos="right">
					<output> 0.5417346954345703 </output>
				</split>
			</split>
		</split>
	</tree>
	<tree id="29" weight="0.1">
		<split>
			<feature> 563 </feature>
			<threshold> 0.46484375 </threshold>
			<split pos="left">
				<feature> 610 </feature>
				<threshold> 0.2298105 </threshold>
				<split pos="left">
					<feature> 432 </feature>
					<threshold> 0.52734375 </threshold>
					<split pos="left">
						<feature> 369 </feature>
						<threshold> 0.6220903 </threshold>
						<split pos="left">
							<feature> 371 </feature>
							<threshold> 0.875 </threshold>
							<split pos="left">
								<feature> 241 </feature>
								<threshold> 0.5234375 </threshold>
								<split pos="left">
									<output> -0.6603143811225891 </output>
								</split>
								<split pos="right">
									<feature> 534 </feature>
									<threshold> 0.34153587 </threshold>
									<split pos="left">
										<feature> 369 </feature>
										<threshold> 0.4885132 </threshold>
										<split pos="left">
											<feature> 417 </feature>
											<threshold> 0.6354512 </threshold>
											<split pos="left">
												<output> -0.01854844018816948 </output>
											</split>
											<split pos="right">
												<output> 1.1463536024093628 </output>
											</split>
										</split>
										<split pos="right">
											<output> 0.38962772488594055 </output>
										</split>
									</split>
									<split pos="right">
										<output> 0.8796055912971497 </output>
									</split>
								</split>
							</split>
							<split pos="right">
								<output> -6.364810943603516 </output>
							</split>
						</split>
						<split pos="right">
							<output> 0.5823423266410828 </output>
						</split>
					</split>
					<split pos="right">
						<output> 1.1404478549957275 </output>
					</split>
				</split>
				<split pos="right">
					<output> 0.9927722811698914 </output>
				</split>
			</split>
			<split pos="right">
				<output> 1.1228440999984741 </output>
			</split>
		</split>
	</tree>
	<tree id="30" weight="0.1">
		<split>
			<feature> 563 </feature>
			<threshold> 0.46484375 </threshold>
			<split pos="left">
				<feature> 610 </feature>
				<threshold> 0.2298105 </threshold>
				<split pos="left">
					<feature> 369 </feature>
					<threshold> 0.6220903 </threshold>
					<split pos="left">
						<feature> 432 </feature>
						<threshold> 0.52734375 </threshold>
						<split pos="left">
							<feature> 276 </feature>
							<threshold> 0.30345455 </threshold>
							<split pos="left">
								<output> -0.550653874874115 </output>
							</split>
							<split pos="right">
								<feature> 129 </feature>
								<threshold> 0.74441445 </threshold>
								<split pos="left">
									<feature> 369 </feature>
									<threshold> 0.114495225 </threshold>
									<split pos="left">
										<output> -0.20724236965179443 </output>
									</split>
									<split pos="right">
										<feature> 534 </feature>
										<threshold> 0.27728048 </threshold>
										<split pos="left">
											<feature> 124 </feature>
											<threshold> 0.28795955 </threshold>
											<split pos="left">
												<output> 0.18164853751659393 </output>
											</split>
											<split pos="right">
												<output> 1.1875464916229248 </output>
											</split>
										</split>
										<split pos="right">
											<output> 1.0326656103134155 </output>
										</split>
									</split>
								</split>
								<split pos="right">
									<output> 2.0294125080108643 </output>
								</split>
							</split>
						</split>
						<split pos="right">
							<output> 1.1155574321746826 </output>
						</split>
					</split>
					<split pos="right">
						<output> 0.49908843636512756 </output>
					</split>
				</split>
				<split pos="right">
					<output> 0.9435314536094666 </output>
				</split>
			</split>
			<split pos="right">
				<output> 1.0900254249572754 </output>
			</split>
		</split>
	</tree>
	<tree id="31" weight="0.1">
		<split>
			<feature> 563 </feature>
			<threshold> 0.46484375 </threshold>
			<split pos="left">
				<feature> 610 </feature>
				<threshold> 0.2298105 </threshold>
				<split pos="left">
					<feature> 489 </feature>
					<threshold> 0.6893128 </threshold>
					<split pos="left">
						<feature> 369 </feature>
						<threshold> 0.8587124 </threshold>
						<split pos="left">
							<feature> 432 </feature>
							<threshold> 0.52734375 </threshold>
							<split pos="left">
								<feature> 369 </feature>
								<threshold> 0.6220903 </threshold>
								<split pos="left">
									<feature> 276 </feature>
									<threshold> 0.30345455 </threshold>
									<split pos="left">
										<output> -0.5468835234642029 </output>
									</split>
									<split pos="right">
										<feature> 129 </feature>
										<threshold> 0.74441445 </threshold>
										<split pos="left">
											<feature> 320 </feature>
											<threshold> 0.0 </threshold>
											<split pos="left">
												<output> -0.17333528399467468 </output>
											</split>
											<split pos="right">
												<output> 0.2692771553993225 </output>
											</split>
										</split>
										<split pos="right">
											<output> 1.7827212810516357 </output>
										</split>
									</split>
								</split>
								<split pos="right">
									<output> 0.35818830132484436 </output>
								</split>
							</split>
							<split pos="right">
								<output> 1.0934163331985474 </output>
							</split>
						</split>
						<split pos="right">
							<output> 1.2094693183898926 </output>
						</split>
					</split>
					<split pos="right">
						<output> 1.3714747428894043 </output>
					</split>
				</split>
				<split pos="right">
					<output> 0.8595736622810364 </output>
				</split>
			</split>
			<split pos="right">
				<output> 1.0601080656051636 </output>
			</split>
		</split>
	</tree>
	<tree id="32" weight="0.1">
		<split>
			<feature> 489 </feature>
			<threshold> 0.6893128 </threshold>
			<split pos="left">
				<feature> 563 </feature>
				<threshold> 0.46484375 </threshold>
				<split pos="left">
					<feature> 369 </feature>
					<threshold> 0.8587124 </threshold>
					<split pos="left">
						<feature> 610 </feature>
						<threshold> 0.2298105 </threshold>
						<split pos="left">
							<feature> 432 </feature>
							<threshold> 0.52734375 </threshold>
							<split pos="left">
								<feature> 129 </feature>
								<threshold> 0.74441445 </threshold>
								<split pos="left">
									<feature> 369 </feature>
									<threshold> 0.5075957 </threshold>
									<split pos="left">
										<feature> 635 </feature>
										<threshold> 0.9941919 </threshold>
										<split pos="left">
											<feature> 276 </feature>
											<threshold> 0.30345455 </threshold>
											<split pos="left">
												<output> -0.6127405166625977 </output>
											</split>
											<split pos="right">
												<output> 0.03464571386575699 </output>
											</split>
										</split>
										<split pos="right">
											<output> 1.0168206691741943 </output>
										</split>
									</split>
									<split pos="right">
										<output> 0.3036313056945801 </output>
									</split>
								</split>
								<split pos="right">
									<output> 1.5678900480270386 </output>
								</split>
							</split>
							<split pos="right">
								<output> 1.067202091217041 </output>
							</split>
						</split>
						<split pos="right">
							<output> 0.7783757448196411 </output>
						</split>
					</split>
					<split pos="right">
						<output> 1.0214499235153198 </output>
					</split>
				</split>
				<split pos="right">
					<output> 1.032356858253479 </output>
				</split>
			</split>
			<split pos="right">
				<output> 1.3416887521743774 </output>
			</split>
		</split>
	</tree>
	<tree id="33" weight="0.1">
		<split>
			<feature> 489 </feature>
			<threshold> 0.6893128 </threshold>
			<split pos="left">
				<feature> 369 </feature>
				<threshold> 0.8587124 </threshold>
				<split pos="left">
					<feature> 563 </feature>
					<threshold> 0.46484375 </threshold>
					<split pos="left">
						<feature> 129 </feature>
						<threshold> 0.74441445 </threshold>
						<split pos="left">
							<feature> 432 </feature>
							<threshold> 0.52734375 </threshold>
							<split pos="left">
								<feature> 610 </feature>
								<threshold> 0.2298105 </threshold>
								<split pos="left">
									<feature> 369 </feature>
									<threshold> 0.67933756 </threshold>
									<split pos="left">
										<feature> 369 </feature>
										<threshold> 0.66025513 </threshold>
										<split pos="left">
											<feature> 369 </feature>
											<threshold> 0.6220903 </threshold>
											<split pos="left">
												<output> -0.10311436653137207 </output>
											</split>
											<split pos="right">
												<output> 0.4040481150150299 </output>
											</split>
										</split>
										<split pos="right">
											<output> -1.2941561937332153 </output>
										</split>
									</split>
									<split pos="right">
										<output> 0.47648921608924866 </output>
									</split>
								</split>
								<split pos="right">
									<output> 0.6447576880455017 </output>
								</split>
							</split>
							<split pos="right">
								<output> 1.0439296960830688 </output>
							</split>
						</split>
						<split pos="right">
							<output> 1.4883877038955688 </output>
						</split>
					</split>
					<split pos="right">
						<output> 1.0064507722854614 </output>
					</split>
				</split>
				<split pos="right">
					<output> 1.0167351961135864 </output>
				</split>
			</split>
			<split pos="right">
				<output> 1.3054765462875366 </output>
			</split>
		</split>
	</tree>
	<tree id="34" weight="0.1">
		<split>
			<feature> 489 </feature>
			<threshold> 0.6893128 </threshold>
			<split pos="left">
				<feature> 563 </feature>
				<threshold> 0.46484375 </threshold>
				<split pos="left">
					<feature> 369 </feature>
					<threshold> 0.8587124 </threshold>
					<split pos="left">
						<feature> 129 </feature>
						<threshold> 0.74441445 </threshold>
						<split pos="left">
							<feature> 605 </feature>
							<threshold> 0.58718497 </threshold>
							<split pos="left">
								<feature> 432 </feature>
								<threshold> 0.52734375 </threshold>
								<split pos="left">
									<feature> 369 </feature>
									<threshold> 0.73276836 </threshold>
									<split pos="left">
										<feature> 610 </feature>
										<threshold> 0.2298105 </threshold>
										<split pos="left">
											<feature> 369 </feature>
											<threshold> 0.5075957 </threshold>
											<split pos="left">
												<output> -0.1399957835674286 </output>
											</split>
											<split pos="right">
												<output> 0.23611100018024445 </output>
											</split>
										</split>
										<split pos="right">
											<output> 0.5517283082008362 </output>
										</split>
									</split>
									<split pos="right">
										<output> 0.6454674601554871 </output>
									</split>
								</split>
								<split pos="right">
									<output> 1.0212243795394897 </output>
								</split>
							</split>
							<split pos="right">
								<output> -3.3321075439453125 </output>
							</split>
						</split>
						<split pos="right">
							<output> 1.3658264875411987 </output>
						</split>
					</split>
					<split pos="right">
						<output> 0.9968205094337463 </output>
					</split>
				</split>
				<split pos="right">
					<output> 0.9717839956283569 </output>
				</split>
			</split>
			<split pos="right">
				<output> 1.2751060724258423 </output>
			</split>
		</split>
	</tree>
	<tree id="35" weight="0.1">
		<split>
			<feature> 489 </feature>
			<threshold> 0.6893128 </threshold>
			<split pos="left">
				<feature> 369 </feature>
				<threshold> 0.73276836 </threshold>
				<split pos="left">
					<feature> 563 </feature>
					<threshold> 0.46484375 </threshold>
					<split pos="left">
						<feature> 129 </feature>
						<threshold> 0.74441445 </threshold>
						<split pos="left">
							<feature> 432 </feature>
							<threshold> 0.52734375 </threshold>
							<split pos="left">
								<feature> 610 </feature>
								<threshold> 0.2298105 </threshold>
								<split pos="left">
									<feature> 27 </feature>
									<threshold> 0.20218241 </threshold>
									<split pos="left">
										<output> -0.7773281931877136 </output>
									</split>
									<split pos="right">
										<feature> 232 </feature>
										<threshold> -2.2781837 </threshold>
										<split pos="left">
											<output> 3.5144524574279785 </output>
										</split>
										<split pos="right">
											<feature> 417 </feature>
											<threshold> 0.6354512 </threshold>
											<split pos="left">
												<output> 0.02674158290028572 </output>
											</split>
											<split pos="right">
												<output> 1.1611473560333252 </output>
											</split>
										</split>
									</split>
								</split>
								<split pos="right">
									<output> 0.5090933442115784 </output>
								</split>
							</split>
							<split pos="right">
								<output> 0.9973234534263611 </output>
							</split>
						</split>
						<split pos="right">
							<output> 1.1705858707427979 </output>
						</split>
					</split>
					<split pos="right">
						<output> 0.9380893707275391 </output>
					</split>
				</split>
				<split pos="right">
					<output> 0.6925441026687622 </output>
				</split>
			</split>
			<split pos="right">
				<output> 1.2458416223526 </output>
			</split>
		</split>
	</tree>
	<tree id="36" weight="0.1">
		<split>
			<feature> 369 </feature>
			<threshold> 0.8587124 </threshold>
			<split pos="left">
				<feature> 489 </feature>
				<threshold> 0.6893128 </threshold>
				<split pos="left">
					<feature> 563 </feature>
					<threshold> 0.46484375 </threshold>
					<split pos="left">
						<feature> 369 </feature>
						<threshold> 0.73276836 </threshold>
						<split pos="left">
							<feature> 608 </feature>
							<threshold> 0.7234027 </threshold>
							<split pos="left">
								<feature> 555 </feature>
								<threshold> 0.29982716 </threshold>
								<split pos="left">
									<feature> 129 </feature>
									<threshold> 0.74441445 </threshold>
									<split pos="left">
										<feature> 432 </feature>
										<threshold> 0.52734375 </threshold>
										<split pos="left">
											<feature> 552 </feature>
											<threshold> 0.09701554 </threshold>
											<split pos="left">
												<output> -0.0894240066409111 </output>
											</split>
											<split pos="right">
												<output> 0.5862112641334534 </output>
											</split>
										</split>
										<split pos="right">
											<output> 0.974131166934967 </output>
										</split>
									</split>
									<split pos="right">
										<output> 1.0881761312484741 </output>
									</split>
								</split>
								<split pos="right">
									<output> -3.837707042694092 </output>
								</split>
							</split>
							<split pos="right">
								<output> 1.3951889276504517 </output>
							</split>
						</split>
						<split pos="right">
							<output> 0.5448101758956909 </output>
						</split>
					</split>
					<split pos="right">
						<output> 0.9068053364753723 </output>
					</split>
				</split>
				<split pos="right">
					<output> 1.21906578540802 </output>
				</split>
			</split>
			<split pos="right">
				<output> 1.0330671072006226 </output>
			</split>
		</split>
	</tree>
	<tree id="37" weight="0.1">
		<split>
			<feature> 369 </feature>
			<threshold> 0.8587124 </threshold>
			<split pos="left">
				<feature> 489 </feature>
				<threshold> 0.6893128 </threshold>
				<split pos="left">
					<feature> 563 </feature>
					<threshold> 0.46484375 </threshold>
					<split pos="left">
						<feature> 129 </feature>
						<threshold> 0.74441445 </threshold>
						<split pos="left">
							<feature> 369 </feature>
							<threshold> 0.73276836 </threshold>
							<split pos="left">
								<feature> 608 </feature>
								<threshold> 0.7234027 </threshold>
								<split pos="left">
									<feature> 552 </feature>
									<threshold> 0.09701554 </threshold>
									<split pos="left">
										<feature> 432 </feature>
										<threshold> 0.52734375 </threshold>
										<split pos="left">
											<feature> 320 </feature>
											<threshold> 0.0 </threshold>
											<split pos="left">
												<output> -0.35368964076042175 </output>
											</split>
											<split pos="right">
												<output> 0.13590270280838013 </output>
											</split>
										</split>
										<split pos="right">
											<output> 0.9465878009796143 </output>
										</split>
									</split>
									<split pos="right">
										<output> 0.6223345398902893 </output>
									</split>
								</split>
								<split pos="right">
									<output> 1.348663568496704 </output>
								</split>
							</split>
							<split pos="right">
								<output> 0.5060800313949585 </output>
							</split>
						</split>
						<split pos="right">
							<output> 0.9877737760543823 </output>
						</split>
					</split>
					<split pos="right">
						<output> 0.902741551399231 </output>
					</split>
				</split>
				<split pos="right">
					<output> 1.1933294534683228 </output>
				</split>
			</split>
			<split pos="right">
				<output> 0.9948029518127441 </output>
			</split>
		</split>
	</tree>
	<tree id="38" weight="0.1">
		<split>
			<feature> 369 </feature>
			<threshold> 0.8587124 </threshold>
			<split pos="left">
				<feature> 489 </feature>
				<threshold> 0.6893128 </threshold>
				<split pos="left">
					<feature> 563 </feature>
					<threshold> 0.46484375 </threshold>
					<split pos="left">
						<feature> 369 </feature>
						<threshold> 0.73276836 </threshold>
						<split pos="left">
							<feature> 129 </feature>
							<threshold> 0.74441445 </threshold>
							<split pos="left">
								<feature> 608 </feature>
								<threshold> 0.7234027 </threshold>
								<split pos="left">
									<feature> 552 </feature>
									<threshold> 0.09701554 </threshold>
									<split pos="left">
										<feature> 635 </feature>
										<threshold> 0.9941919 </threshold>
										<split pos="left">
											<feature> 197 </feature>
											<threshold> 0.17239471 </threshold>
											<split pos="left">
												<output> -0.3873273432254791 </output>
											</split>
											<split pos="right">
												<output> 0.10920017212629318 </output>
											</split>
										</split>
										<split pos="right">
											<output> 1.0159776210784912 </output>
										</split>
									</split>
									<split pos="right">
										<output> 0.5834054946899414 </output>
									</split>
								</split>
								<split pos="right">
									<output> 1.3062915802001953 </output>
								</split>
							</split>
							<split pos="right">
								<output> 0.8311565518379211 </output>
							</split>
						</split>
						<split pos="right">
							<output> 0.46572354435920715 </output>
						</split>
					</split>
					<split pos="right">
						<output> 0.8740564584732056 </output>
					</split>
				</split>
				<split pos="right">
					<output> 1.1720060110092163 </output>
				</split>
			</split>
			<split pos="right">
				<output> 0.9546019434928894 </output>
			</split>
		</split>
	</tree>
	<tree id="39" weight="0.1">
		<split>
			<feature> 369 </feature>
			<threshold> 0.8587124 </threshold>
			<split pos="left">
				<feature> 489 </feature>
				<threshold> 0.6893128 </threshold>
				<split pos="left">
					<feature> 563 </feature>
					<threshold> 0.46484375 </threshold>
					<split pos="left">
						<feature> 129 </feature>
						<threshold> 0.74441445 </threshold>
						<split pos="left">
							<feature> 502 </feature>
							<threshold> 0.9429364 </threshold>
							<split pos="left">
								<feature> 369 </feature>
								<threshold> 0.7404013 </threshold>
								<split pos="left">
									<feature> 608 </feature>
									<threshold> 0.7234027 </threshold>
									<split pos="left">
										<feature> 552 </feature>
										<threshold> 0.09701554 </threshold>
										<split pos="left">
											<feature> 197 </feature>
											<threshold> 0.17239471 </threshold>
											<split pos="left">
												<output> -0.38734593987464905 </output>
											</split>
											<split pos="right">
												<output> 0.11498134583234787 </output>
											</split>
										</split>
										<split pos="right">
											<output> 0.5507572293281555 </output>
										</split>
									</split>
									<split pos="right">
										<output> 1.2707078456878662 </output>
									</split>
								</split>
								<split pos="right">
									<output> 0.5944072604179382 </output>
								</split>
							</split>
							<split pos="right">
								<output> -4.011899948120117 </output>
							</split>
						</split>
						<split pos="right">
							<output> 0.7955388426780701 </output>
						</split>
					</split>
					<split pos="right">
						<output> 0.8419777154922485 </output>
					</split>
				</split>
				<split pos="right">
					<output> 1.1515551805496216 </output>
				</split>
			</split>
			<split pos="right">
				<output> 0.9141156673431396 </output>
			</split>
		</split>
	</tree>
	<tree id="40" weight="0.1">
		<split>
			<feature> 369 </feature>
			<threshold> 0.8587124 </threshold>
			<split pos="left">
				<feature> 369 </feature>
				<threshold> 0.8510794 </threshold>
				<split pos="left">
					<feature> 489 </feature>
					<threshold> 0.6893128 </threshold>
					<split pos="left">
						<feature> 369 </feature>
						<threshold> 0.7404013 </threshold>
						<split pos="left">
							<feature> 563 </feature>
							<threshold> 0.46484375 </threshold>
							<split pos="left">
								<feature> 129 </feature>
								<threshold> 0.74441445 </threshold>
								<split pos="left">
									<feature> 608 </feature>
									<threshold> 0.7234027 </threshold>
									<split pos="left">
										<feature> 552 </feature>
										<threshold> 0.09701554 </threshold>
										<split pos="left">
											<feature> 181 </feature>
											<threshold> 0.42578125 </threshold>
											<split pos="left">
												<output> 0.12487659603357315 </output>
											</split>
											<split pos="right">
												<output> -0.3385668098926544 </output>
											</split>
										</split>
										<split pos="right">
											<output> 0.5280488133430481 </output>
										</split>
									</split>
									<split pos="right">
										<output> 1.240168571472168 </output>
									</split>
								</split>
								<split pos="right">
									<output> 0.7654157280921936 </output>
								</split>
							</split>
							<split pos="right">
								<output> 0.7962345480918884 </output>
							</split>
						</split>
						<split pos="right">
							<output> 0.5791776776313782 </output>
						</split>
					</split>
					<split pos="right">
						<output> 1.1334997415542603 </output>
					</split>
				</split>
				<split pos="right">
					<output> -4.211188316345215 </output>
				</split>
			</split>
			<split pos="right">
				<output> 0.8747159838676453 </output>
			</split>
		</split>
	</tree>
	<tree id="41" weight="0.1">
		<split>
			<feature> 369 </feature>
			<threshold> 0.7404013 </threshold>
			<split pos="left">
				<feature> 489 </feature>
				<threshold> 0.6893128 </threshold>
				<split pos="left">
					<feature> 563 </feature>
					<threshold> 0.46484375 </threshold>
					<split pos="left">
						<feature> 555 </feature>
						<threshold> 0.29982716 </threshold>
						<split pos="left">
							<feature> 129 </feature>
							<threshold> 0.74441445 </threshold>
							<split pos="left">
								<feature> 307 </feature>
								<threshold> 0.061454736 </threshold>
								<split pos="left">
									<output> -0.28781750798225403 </output>
								</split>
								<split pos="right">
									<feature> 42 </feature>
									<threshold> 0.64825606 </threshold>
									<split pos="left">
										<feature> 625 </feature>
										<threshold> 0.011120817 </threshold>
										<split pos="left">
											<feature> 308 </feature>
											<threshold> 0.06179741 </threshold>
											<split pos="left">
												<output> -0.21073536574840546 </output>
											</split>
											<split pos="right">
												<output> 0.370510995388031 </output>
											</split>
										</split>
										<split pos="right">
											<output> 1.5750517845153809 </output>
										</split>
									</split>
									<split pos="right">
										<output> 1.4464783668518066 </output>
									</split>
								</split>
							</split>
							<split pos="right">
								<output> 0.7852895259857178 </output>
							</split>
						</split>
						<split pos="right">
							<output> -3.6593151092529297 </output>
						</split>
					</split>
					<split pos="right">
						<output> 0.744346559047699 </output>
					</split>
				</split>
				<split pos="right">
					<output> 1.1159121990203857 </output>
				</split>
			</split>
			<split pos="right">
				<output> 0.5864791870117188 </output>
			</split>
		</split>
	</tree>
	<tree id="42" weight="0.1">
		<split>
			<feature> 369 </feature>
			<threshold> 0.7404013 </threshold>
			<split pos="left">
				<feature> 489 </feature>
				<threshold> 0.6893128 </threshold>
				<split pos="left">
					<feature> 129 </feature>
					<threshold> 0.74441445 </threshold>
					<split pos="left">
						<feature> 197 </feature>
						<threshold> 0.17239471 </threshold>
						<split pos="left">
							<output> -0.34649035334587097 </output>
						</split>
						<split pos="right">
							<feature> 432 </feature>
							<threshold> 0.3125 </threshold>
							<split pos="left">
								<feature> 563 </feature>
								<threshold> 0.41796875 </threshold>
								<split pos="left">
									<feature> 369 </feature>
									<threshold> 0.5457606 </threshold>
									<split pos="left">
										<feature> 424 </feature>
										<threshold> 0.28792712 </threshold>
										<split pos="left">
											<feature> 359 </feature>
											<threshold> 0.059281126 </threshold>
											<split pos="left">
												<output> 0.0678868219256401 </output>
											</split>
											<split pos="right">
												<output> 2.5128653049468994 </output>
											</split>
										</split>
										<split pos="right">
											<output> 1.1777474880218506 </output>
										</split>
									</split>
									<split pos="right">
										<output> 0.3527369499206543 </output>
									</split>
								</split>
								<split pos="right">
									<output> 0.8172515630722046 </output>
								</split>
							</split>
							<split pos="right">
								<output> 1.0598634481430054 </output>
							</split>
						</split>
					</split>
					<split pos="right">
						<output> 0.6720409989356995 </output>
					</split>
				</split>
				<split pos="right">
					<output> 1.1023787260055542 </output>
				</split>
			</split>
			<split pos="right">
				<output> 0.5156828761100769 </output>
			</split>
		</split>
	</tree>
	<tree id="43" weight="0.1">
		<split>
			<feature> 369 </feature>
			<threshold> 0.8587124 </threshold>
			<split pos="left">
				<feature> 489 </feature>
				<threshold> 0.6893128 </threshold>
				<split pos="left">
					<feature> 369 </feature>
					<threshold> 0.5457606 </threshold>
					<split pos="left">
						<feature> 563 </feature>
						<threshold> 0.46484375 </threshold>
						<split pos="left">
							<feature> 359 </feature>
							<threshold> 0.06057888 </threshold>
							<split pos="left">
								<feature> 129 </feature>
								<threshold> 0.74441445 </threshold>
								<split pos="left">
									<feature> 188 </feature>
									<threshold> 0.2768749 </threshold>
									<split pos="left">
										<feature> 42 </feature>
										<threshold> 0.652946 </threshold>
										<split pos="left">
											<feature> 232 </feature>
											<threshold> -2.2781837 </threshold>
											<split pos="left">
												<output> 3.163519859313965 </output>
											</split>
											<split pos="right">
												<output> 0.07709555327892303 </output>
											</split>
										</split>
										<split pos="right">
											<output> 1.2510578632354736 </output>
										</split>
									</split>
									<split pos="right">
										<output> -0.38596728444099426 </output>
									</split>
								</split>
								<split pos="right">
									<output> 0.6160166263580322 </output>
								</split>
							</split>
							<split pos="right">
								<output> 1.5093332529067993 </output>
							</split>
						</split>
						<split pos="right">
							<output> 0.6318225264549255 </output>
						</split>
					</split>
					<split pos="right">
						<output> 0.28541889786720276 </output>
					</split>
				</split>
				<split pos="right">
					<output> 1.0875298976898193 </output>
				</split>
			</split>
			<split pos="right">
				<output> 0.791225016117096 </output>
			</split>
		</split>
	</tree>
	<tree id="44" weight="0.1">
		<split>
			<feature> 359 </feature>
			<threshold> 0.06057888 </threshold>
			<split pos="left">
				<feature> 369 </feature>
				<threshold> 0.8587124 </threshold>
				<split pos="left">
					<feature> 489 </feature>
					<threshold> 0.6893128 </threshold>
					<split pos="left">
						<feature> 369 </feature>
						<threshold> 0.5457606 </threshold>
						<split pos="left">
							<feature> 534 </feature>
							<threshold> 0.34153587 </threshold>
							<split pos="left">
								<feature> 635 </feature>
								<threshold> 0.9941919 </threshold>
								<split pos="left">
									<feature> 432 </feature>
									<threshold> 0.52734375 </threshold>
									<split pos="left">
										<feature> 481 </feature>
										<threshold> 0.15039533 </threshold>
										<split pos="left">
											<feature> 306 </feature>
											<threshold> 0.72978073 </threshold>
											<split pos="left">
												<output> -0.10078956931829453 </output>
											</split>
											<split pos="right">
												<output> 0.8619980216026306 </output>
											</split>
										</split>
										<split pos="right">
											<output> 1.1464089155197144 </output>
										</split>
									</split>
									<split pos="right">
										<output> 0.9189768433570862 </output>
									</split>
								</split>
								<split pos="right">
									<output> 1.0148066282272339 </output>
								</split>
							</split>
							<split pos="right">
								<output> 0.6046923995018005 </output>
							</split>
						</split>
						<split pos="right">
							<output> 0.25608670711517334 </output>
						</split>
					</split>
					<split pos="right">
						<output> 1.0720504522323608 </output>
					</split>
				</split>
				<split pos="right">
					<output> 0.7567911148071289 </output>
				</split>
			</split>
			<split pos="right">
				<output> 1.4745796918869019 </output>
			</split>
		</split>
	</tree>
	<tree id="45" weight="0.1">
		<split>
			<feature> 359 </feature>
			<threshold> 0.06057888 </threshold>
			<split pos="left">
				<feature> 369 </feature>
				<threshold> 0.5457606 </threshold>
				<split pos="left">
					<feature> 306 </feature>
					<threshold> 0.72978073 </threshold>
					<split pos="left">
						<feature> 481 </feature>
						<threshold> 0.15039533 </threshold>
						<split pos="left">
							<feature> 546 </feature>
							<threshold> 0.13671875 </threshold>
							<split pos="left">
								<feature> 424 </feature>
								<threshold> 0.28792712 </threshold>
								<split pos="left">
									<feature> 563 </feature>
									<threshold> 0.46484375 </threshold>
									<split pos="left">
										<feature> 377 </feature>
										<threshold> 0.99972206 </threshold>
										<split pos="left">
											<feature> 534 </feature>
											<threshold> 0.34153587 </threshold>
											<split pos="left">
												<output> -0.13824303448200226 </output>
											</split>
											<split pos="right">
												<output> 0.5773298144340515 </output>
											</split>
										</split>
										<split pos="right">
											<output> 1.1036916971206665 </output>
										</split>
									</split>
									<split pos="right">
										<output> 0.5660527944564819 </output>
									</split>
								</split>
								<split pos="right">
									<output> 1.042643427848816 </output>
								</split>
							</split>
							<split pos="right">
								<output> 0.9717626571655273 </output>
							</split>
						</split>
						<split pos="right">
							<output> 1.0921556949615479 </output>
						</split>
					</split>
					<split pos="right">
						<output> 0.8634858727455139 </output>
					</split>
				</split>
				<split pos="right">
					<output> 0.28127676248550415 </output>
				</split>
			</split>
			<split pos="right">
				<output> 1.3880345821380615 </output>
			</split>
		</split>
	</tree>
	<tree id="46" weight="0.1">
		<split>
			<feature> 359 </feature>
			<threshold> 0.06057888 </threshold>
			<split pos="left">
				<feature> 369 </feature>
				<threshold> 0.8587124 </threshold>
				<split pos="left">
					<feature> 489 </feature>
					<threshold> 0.6893128 </threshold>
					<split pos="left">
						<feature> 372 </feature>
						<threshold> 0.0 </threshold>
						<split pos="left">
							<feature> 369 </feature>
							<threshold> 0.7518508 </threshold>
							<split pos="left">
								<feature> 129 </feature>
								<threshold> 0.74441445 </threshold>
								<split pos="left">
									<feature> 369 </feature>
									<threshold> 0.114495225 </threshold>
									<split pos="left">
										<output> -0.48875629901885986 </output>
									</split>
									<split pos="right">
										<feature> 534 </feature>
										<threshold> 0.17046607 </threshold>
										<split pos="left">
											<feature> 25 </feature>
											<threshold> -1.9450895 </threshold>
											<split pos="left">
												<output> 0.9476228952407837 </output>
											</split>
											<split pos="right">
												<output> 0.14484654366970062 </output>
											</split>
										</split>
										<split pos="right">
											<output> 1.03593909740448 </output>
										</split>
									</split>
								</split>
								<split pos="right">
									<output> 0.8352502584457397 </output>
								</split>
							</split>
							<split pos="right">
								<output> -1.381531000137329 </output>
							</split>
						</split>
						<split pos="right">
							<output> 0.2848750054836273 </output>
						</split>
					</split>
					<split pos="right">
						<output> 1.0548911094665527 </output>
					</split>
				</split>
				<split pos="right">
					<output> 0.7126497030258179 </output>
				</split>
			</split>
			<split pos="right">
				<output> 1.3046622276306152 </output>
			</split>
		</split>
	</tree>
	<tree id="47" weight="0.1">
		<split>
			<feature> 369 </feature>
			<threshold> 0.73276836 </threshold>
			<split pos="left">
				<feature> 359 </feature>
				<threshold> 0.06057888 </threshold>
				<split pos="left">
					<feature> 489 </feature>
					<threshold> 0.6893128 </threshold>
					<split pos="left">
						<feature> 27 </feature>
						<threshold> 0.20218241 </threshold>
						<split pos="left">
							<output> -0.6369408965110779 </output>
						</split>
						<split pos="right">
							<feature> 54 </feature>
							<threshold> -0.17297477 </threshold>
							<split pos="left">
								<output> 1.2148443460464478 </output>
							</split>
							<split pos="right">
								<feature> 432 </feature>
								<threshold> 0.43359375 </threshold>
								<split pos="left">
									<feature> 570 </feature>
									<threshold> 0.018392164 </threshold>
									<split pos="left">
										<feature> 319 </feature>
										<threshold> 0.014814815 </threshold>
										<split pos="left">
											<output> -0.1987207531929016 </output>
										</split>
										<split pos="right">
											<feature> 529 </feature>
											<threshold> 0.7703699 </threshold>
											<split pos="left">
												<output> 0.18993999063968658 </output>
											</split>
											<split pos="right">
												<output> 1.756182074546814 </output>
											</split>
										</split>
									</split>
									<split pos="right">
										<output> 0.9666803479194641 </output>
									</split>
								</split>
								<split pos="right">
									<output> 0.9713132381439209 </output>
								</split>
							</split>
						</split>
					</split>
					<split pos="right">
						<output> 1.0410773754119873 </output>
					</split>
				</split>
				<split pos="right">
					<output> 1.2138317823410034 </output>
				</split>
			</split>
			<split pos="right">
				<output> 0.5181313753128052 </output>
			</split>
		</split>
	</tree>
	<tree id="48" weight="0.1">
		<split>
			<feature> 369 </feature>
			<threshold> 0.73276836 </threshold>
			<split pos="left">
				<feature> 359 </feature>
				<threshold> 0.06057888 </threshold>
				<split pos="left">
					<feature> 489 </feature>
					<threshold> 0.6893128 </threshold>
					<split pos="left">
						<feature> 319 </feature>
						<threshold> 0.014814815 </threshold>
						<split pos="left">
							<output> -0.25943753123283386 </output>
						</split>
						<split pos="right">
							<feature> 432 </feature>
							<threshold> 0.43359375 </threshold>
							<split pos="left">
								<feature> 529 </feature>
								<threshold> 0.7703699 </threshold>
								<split pos="left">
									<feature> 129 </feature>
									<threshold> 0.74441445 </threshold>
									<split pos="left">
										<feature> 89 </feature>
										<threshold> -5.3175855 </threshold>
										<split pos="left">
											<output> 1.5974634885787964 </output>
										</split>
										<split pos="right">
											<feature> 369 </feature>
											<threshold> 0.114495225 </threshold>
											<split pos="left">
												<output> -0.3090078830718994 </output>
											</split>
											<split pos="right">
												<output> 0.2726295590400696 </output>
											</split>
										</split>
									</split>
									<split pos="right">
										<output> 0.9207496643066406 </output>
									</split>
								</split>
								<split pos="right">
									<output> 1.4484915733337402 </output>
								</split>
							</split>
							<split pos="right">
								<output> 1.1386080980300903 </output>
							</split>
						</split>
					</split>
					<split pos="right">
						<output> 1.0224940776824951 </output>
					</split>
				</split>
				<split pos="right">
					<output> 1.1470727920532227 </output>
				</split>
			</split>
			<split pos="right">
				<output> 0.47389718890190125 </output>
			</split>
		</split>
	</tree>
	<tree id="49" weight="0.1">
		<split>
			<feature> 369 </feature>
			<threshold> 0.73276836 </threshold>
			<split pos="left">
				<feature> 359 </feature>
				<threshold> 0.06057888 </threshold>
				<split pos="left">
					<feature> 489 </feature>
					<threshold> 0.6893128 </threshold>
					<split pos="left">
						<feature> 608 </feature>
						<threshold> 0.7234027 </threshold>
						<split pos="left">
							<feature> 89 </feature>
							<threshold> -5.3175855 </threshold>
							<split pos="left">
								<output> 1.1421035528182983 </output>
							</split>
							<split pos="right">
								<feature> 307 </feature>
								<threshold> 0.061454736 </threshold>
								<split pos="left">
									<output> -0.2759111225605011 </output>
								</split>
								<split pos="right">
									<feature> 42 </feature>
									<threshold> 0.64825606 </threshold>
									<split pos="left">
										<feature> 625 </feature>
										<threshold> 0.011120817 </threshold>
										<split pos="left">
											<feature> 308 </feature>
											<threshold> 0.06179741 </threshold>
											<split pos="left">
												<output> -0.1856180727481842 </output>
											</split>
											<split pos="right">
												<output> 0.3164510726928711 </output>
											</split>
										</split>
										<split pos="right">
											<output> 1.4200835227966309 </output>
										</split>
									</split>
									<split pos="right">
										<output> 1.3851064443588257 </output>
									</split>
								</split>
							</split>
						</split>
						<split pos="right">
							<output> 1.208966851234436 </output>
						</split>
					</split>
					<split pos="right">
						<output> 1.0049388408660889 </output>
					</split>
				</split>
				<split pos="right">
					<output> 1.0670888423919678 </output>
				</split>
			</split>
			<split pos="right">
				<output> 0.4416883885860443 </output>
			</split>
		</split>
	</tree>
	<tree id="50" weight="0.1">
		<split>
			<feature> 369 </feature>
			<threshold> 0.78619915 </threshold>
			<split pos="left">
				<feature> 359 </feature>
				<threshold> 0.06057888 </threshold>
				<split pos="left">
					<feature> 714 </feature>
					<threshold> 0.10256875 </threshold>
					<split pos="left">
						<feature> 419 </feature>
						<threshold> 0.76171875 </threshold>
						<split pos="left">
							<feature> 605 </feature>
							<threshold> 0.58718497 </threshold>
							<split pos="left">
								<feature> 546 </feature>
								<threshold> 0.09765625 </threshold>
								<split pos="left">
									<feature> 635 </feature>
									<threshold> 0.9941919 </threshold>
									<split pos="left">
										<feature> 27 </feature>
										<threshold> 0.20218241 </threshold>
										<split pos="left">
											<output> -0.6242201328277588 </output>
										</split>
										<split pos="right">
											<feature> 54 </feature>
											<threshold> -0.17297477 </threshold>
											<split pos="left">
												<output> 1.1218520402908325 </output>
											</split>
											<split pos="right">
												<output> 0.028843548148870468 </output>
											</split>
										</split>
									</split>
									<split pos="right">
										<output> 1.0144562721252441 </output>
									</split>
								</split>
								<split pos="right">
									<output> 0.719483494758606 </output>
								</split>
							</split>
							<split pos="right">
								<output> -3.5088329315185547 </output>
							</split>
						</split>
						<split pos="right">
							<output> 1.244168758392334 </output>
						</split>
					</split>
					<split pos="right">
						<output> -4.471404552459717 </output>
					</split>
				</split>
				<split pos="right">
					<output> 0.9990038871765137 </output>
				</split>
			</split>
			<split pos="right">
				<output> 0.4776749908924103 </output>
			</split>
		</split>
	</tree>
	<tree id="51" weight="0.1">
		<split>
			<feature> 369 </feature>
			<threshold> 0.76330024 </threshold>
			<split pos="left">
				<feature> 359 </feature>
				<threshold> 0.06057888 </threshold>
				<split pos="left">
					<feature> 419 </feature>
					<threshold> 0.76171875 </threshold>
					<split pos="left">
						<feature> 273 </feature>
						<threshold> -27.118923 </threshold>
						<split pos="left">
							<feature> 29 </feature>
							<threshold> 0.51953125 </threshold>
							<split pos="left">
								<feature> 43 </feature>
								<threshold> 0.34020057 </threshold>
								<split pos="left">
									<feature> 595 </feature>
									<threshold> 0.13067852 </threshold>
									<split pos="left">
										<feature> 546 </feature>
										<threshold> 0.05078125 </threshold>
										<split pos="left">
											<feature> 680 </feature>
											<threshold> 0.29641283 </threshold>
											<split pos="left">
												<output> 0.23235012590885162 </output>
											</split>
											<split pos="right">
												<output> 2.267747402191162 </output>
											</split>
										</split>
										<split pos="right">
											<output> 0.9029625058174133 </output>
										</split>
									</split>
									<split pos="right">
										<output> 1.1483714580535889 </output>
									</split>
								</split>
								<split pos="right">
									<output> -0.1675436943769455 </output>
								</split>
							</split>
							<split pos="right">
								<output> 1.2158966064453125 </output>
							</split>
						</split>
						<split pos="right">
							<output> -0.4538862109184265 </output>
						</split>
					</split>
					<split pos="right">
						<output> 1.2041094303131104 </output>
					</split>
				</split>
				<split pos="right">
					<output> 0.9344916939735413 </output>
				</split>
			</split>
			<split pos="right">
				<output> 0.46989017724990845 </output>
			</split>
		</split>
	</tree>
	<tree id="52" weight="0.1">
		<split>
			<feature> 369 </feature>
			<threshold> 0.5457606 </threshold>
			<split pos="left">
				<feature> 481 </feature>
				<threshold> 0.15039533 </threshold>
				<split pos="left">
					<feature> 377 </feature>
					<threshold> 0.99972206 </threshold>
					<split pos="left">
						<feature> 359 </feature>
						<threshold> 0.06057888 </threshold>
						<split pos="left">
							<feature> 424 </feature>
							<threshold> 0.28792712 </threshold>
							<split pos="left">
								<feature> 89 </feature>
								<threshold> -5.3175855 </threshold>
								<split pos="left">
									<output> 0.9854070544242859 </output>
								</split>
								<split pos="right">
									<feature> 371 </feature>
									<threshold> 0.0 </threshold>
									<split pos="left">
										<feature> 432 </feature>
										<threshold> 0.515625 </threshold>
										<split pos="left">
											<feature> 563 </feature>
											<threshold> 0.46484375 </threshold>
