## LambdaMART
## No. of trees = 1000
## No. of leaves = 10
## No. of threshold candidates = 256
## Learning rate = 0.1
## Stop early = 100

<ensemble>
	<tree id="1" weight="0.1">
		<split>
			<feature> 872 </feature>
			<threshold> 0.4708107 </threshold>
			<split pos="left">
				<feature> 325 </feature>
				<threshold> 0.19921875 </threshold>
				<split pos="left">
					<feature> 22 </feature>
					<threshold> -0.21062595 </threshold>
					<split pos="left">
						<output> 1.9880985021591187 </output>
					</split>
					<split pos="right">
						<feature> 139 </feature>
						<threshold> 0.42051965 </threshold>
						<split pos="left">
							<feature> 326 </feature>
							<threshold> 0.0 </threshold>
							<split pos="left">
								<output> -1.2753663063049316 </output>
							</split>
							<split pos="right">
								<output> -0.062365174293518066 </output>
							</split>
						</split>
						<split pos="right">
							<output> 1.7899397611618042 </output>
						</split>
					</split>
				</split>
				<split pos="right">
					<feature> 1637 </feature>
					<threshold> 0.63740146 </threshold>
					<split pos="left">
						<feature> 407 </feature>
						<threshold> 0.8 </threshold>
						<split pos="left">
							<feature> 1589 </feature>
							<threshold> 0.0 </threshold>
							<split pos="left">
								<feature> 4439 </feature>
								<threshold> 0.0 </threshold>
								<split pos="left">
									<output> 1.0896060466766357 </output>
								</split>
								<split pos="right">
									<output> 1.8390682935714722 </output>
								</split>
							</split>
							<split pos="right">
								<output> 1.7944937944412231 </output>
							</split>
						</split>
						<split pos="right">
							<output> 2.0 </output>
						</split>
					</split>
					<split pos="right">
						<output> 2.0 </output>
					</split>
				</split>
			</split>
			<split pos="right">
				<output> 1.9710215330123901 </output>
			</split>
		</split>
	</tree>
	<tree id="2" weight="0.1">
		<split>
			<feature> 1637 </feature>
			<threshold> 0.63740146 </threshold>
			<split pos="left">
				<feature> 4439 </feature>
				<threshold> 0.0 </threshold>
				<split pos="left">
					<feature> 325 </feature>
					<threshold> 0.19921875 </threshold>
					<split pos="left">
						<output> -1.2821568250656128 </output>
					</split>
					<split pos="right">
						<feature> 1589 </feature>
						<threshold> 0.0 </threshold>
						<split pos="left">
							<feature> 1098 </feature>
							<threshold> 0.030524267 </threshold>
							<split pos="left">
								<feature> 2969 </feature>
								<threshold> 0.5 </threshold>
								<split pos="left">
									<feature> 389 </feature>
									<threshold> 0.73828125 </threshold>
									<split pos="left">
										<feature> 3830 </feature>
										<threshold> 0.5 </threshold>
										<split pos="left">
											<output> 0.9728248715400696 </output>
										</split>
										<split pos="right">
											<output> 1.7994786500930786 </output>
										</split>
									</split>
									<split pos="right">
										<output> 1.7944748401641846 </output>
									</split>
								</split>
								<split pos="right">
									<output> 1.795952558517456 </output>
								</split>
							</split>
							<split pos="right">
								<output> 1.7441271543502808 </output>
							</split>
						</split>
						<split pos="right">
							<output> 1.4647024869918823 </output>
						</split>
					</split>
				</split>
				<split pos="right">
					<output> 1.6595878601074219 </output>
				</split>
			</split>
			<split pos="right">
				<feature> 109 </feature>
				<threshold> -0.12869444 </threshold>
				<split pos="left">
					<output> 1.723233699798584 </output>
				</split>
				<split pos="right">
					<output> 1.7534399032592773 </output>
				</split>
			</split>
		</split>
	</tree>
	<tree id="3" weight="0.1">
		<split>
			<feature> 1637 </feature>
			<threshold> 0.63740146 </threshold>
			<split pos="left">
				<feature> 307 </feature>
				<threshold> 0.83203125 </threshold>
				<split pos="left">
					<feature> 4439 </feature>
					<threshold> 0.0 </threshold>
					<split pos="left">
						<feature> 3830 </feature>
						<threshold> 0.5 </threshold>
						<split pos="left">
							<feature> 1098 </feature>
							<threshold> 0.03089007 </threshold>
							<split pos="left">
								<feature> 325 </feature>
								<threshold> 0.19921875 </threshold>
								<split pos="left">
									<output> -1.2034229040145874 </output>
								</split>
								<split pos="right">
									<feature> 1589 </feature>
									<threshold> 0.0 </threshold>
									<split pos="left">
										<output> 0.8373643159866333 </output>
									</split>
									<split pos="right">
										<output> 1.2329787015914917 </output>
									</split>
								</split>
							</split>
							<split pos="right">
								<feature> 827 </feature>
								<threshold> 0.0 </threshold>
								<split pos="left">
									<output> 0.6898359060287476 </output>
								</split>
								<split pos="right">
									<output> 1.5823674201965332 </output>
								</split>
							</split>
						</split>
						<split pos="right">
							<output> 1.5942249298095703 </output>
						</split>
					</split>
					<split pos="right">
						<output> 1.4719758033752441 </output>
					</split>
				</split>
				<split pos="right">
					<output> 1.5900336503982544 </output>
				</split>
			</split>
			<split pos="right">
				<feature> 309 </feature>
				<threshold> 0.00390625 </threshold>
				<split pos="left">
					<output> 1.5372345447540283 </output>
				</split>
				<split pos="right">
					<output> 1.5875617265701294 </output>
				</split>
			</split>
		</split>
	</tree>
	<tree id="4" weight="0.1">
		<split>
			<feature> 1637 </feature>
			<threshold> 0.63740146 </threshold>
			<split pos="left">
				<feature> 307 </feature>
				<threshold> 0.83203125 </threshold>
				<split pos="left">
					<feature> 4439 </feature>
					<threshold> 0.0 </threshold>
					<split pos="left">
						<feature> 3830 </feature>
						<threshold> 0.5 </threshold>
						<split pos="left">
							<feature> 1098 </feature>
							<threshold> 0.03089007 </threshold>
							<split pos="left">
								<feature> 325 </feature>
								<threshold> 0.25 </threshold>
								<split pos="left">
									<output> -0.9624411463737488 </output>
								</split>
								<split pos="right">
									<output> 0.8074230551719666 </output>
								</split>
							</split>
							<split pos="right">
								<feature> 827 </feature>
								<threshold> 0.0 </threshold>
								<split pos="left">
									<output> 0.596085786819458 </output>
								</split>
								<split pos="right">
									<feature> 324 </feature>
									<threshold> 0.09375 </threshold>
									<split pos="left">
										<output> 1.4656732082366943 </output>
									</split>
									<split pos="right">
										<output> 1.316364049911499 </output>
									</split>
								</split>
							</split>
						</split>
						<split pos="right">
							<output> 1.4538743495941162 </output>
						</split>
					</split>
					<split pos="right">
						<output> 1.3389179706573486 </output>
					</split>
				</split>
				<split pos="right">
					<output> 1.4596312046051025 </output>
				</split>
			</split>
			<split pos="right">
				<feature> 322 </feature>
				<threshold> 0.0 </threshold>
				<split pos="left">
					<output> 1.475348711013794 </output>
				</split>
				<split pos="right">
					<output> 1.410569429397583 </output>
				</split>
			</split>
		</split>
	</tree>
	<tree id="5" weight="0.1">
		<split>
			<feature> 1637 </feature>
			<threshold> 0.63740146 </threshold>
			<split pos="left">
				<feature> 307 </feature>
				<threshold> 0.83203125 </threshold>
				<split pos="left">
					<feature> 4439 </feature>
					<threshold> 0.0 </threshold>
					<split pos="left">
						<feature> 3830 </feature>
						<threshold> 0.5 </threshold>
						<split pos="left">
							<feature> 325 </feature>
							<threshold> 0.25 </threshold>
							<split pos="left">
								<output> -0.9571847915649414 </output>
							</split>
							<split pos="right">
								<feature> 1098 </feature>
								<threshold> 0.030524267 </threshold>
								<split pos="left">
									<feature> 1554 </feature>
									<threshold> 0.5 </threshold>
									<split pos="left">
										<output> 0.734451413154602 </output>
									</split>
									<split pos="right">
										<output> 1.5153310298919678 </output>
									</split>
								</split>
								<split pos="right">
									<feature> 83 </feature>
									<threshold> -0.0713516 </threshold>
									<split pos="left">
										<output> 1.4001997709274292 </output>
									</split>
									<split pos="right">
										<output> 0.16919751465320587 </output>
									</split>
								</split>
							</split>
						</split>
						<split pos="right">
							<output> 1.3590234518051147 </output>
						</split>
					</split>
					<split pos="right">
						<output> 1.243607521057129 </output>
					</split>
				</split>
				<split pos="right">
					<output> 1.3649965524673462 </output>
				</split>
			</split>
			<split pos="right">
				<feature> 485 </feature>
				<threshold> 0.0 </threshold>
				<split pos="left">
					<output> 1.325347900390625 </output>
				</split>
				<split pos="right">
					<output> 1.392244815826416 </output>
				</split>
			</split>
		</split>
	</tree>
	<tree id="6" weight="0.1">
		<split>
			<feature> 1637 </feature>
			<threshold> 0.63740146 </threshold>
			<split pos="left">
				<feature> 307 </feature>
				<threshold> 0.83203125 </threshold>
				<split pos="left">
					<feature> 4439 </feature>
					<threshold> 0.0 </threshold>
					<split pos="left">
						<feature> 325 </feature>
						<threshold> 0.265625 </threshold>
						<split pos="left">
							<output> -0.8014267683029175 </output>
						</split>
						<split pos="right">
							<feature> 1098 </feature>
							<threshold> 0.030524267 </threshold>
							<split pos="left">
								<feature> 2969 </feature>
								<threshold> 0.25 </threshold>
								<split pos="left">
									<feature> 1175 </feature>
									<threshold> 0.28438175 </threshold>
									<split pos="left">
										<feature> 1022 </feature>
										<threshold> 0.16015625 </threshold>
										<split pos="left">
											<output> 0.6627729535102844 </output>
										</split>
										<split pos="right">
											<output> 1.2872276306152344 </output>
										</split>
									</split>
									<split pos="right">
										<output> 1.3774477243423462 </output>
									</split>
								</split>
								<split pos="right">
									<output> 1.4162918329238892 </output>
								</split>
							</split>
							<split pos="right">
								<output> 1.316469430923462 </output>
							</split>
						</split>
					</split>
					<split pos="right">
						<output> 1.1657710075378418 </output>
					</split>
				</split>
				<split pos="right">
					<output> 1.2934972047805786 </output>
				</split>
			</split>
			<split pos="right">
				<feature> 322 </feature>
				<threshold> 0.0 </threshold>
				<split pos="left">
					<output> 1.33052659034729 </output>
				</split>
				<split pos="right">
					<output> 1.260179877281189 </output>
				</split>
			</split>
		</split>
	</tree>
	<tree id="7" weight="0.1">
		<split>
			<feature> 1637 </feature>
			<threshold> 0.63740146 </threshold>
			<split pos="left">
				<feature> 307 </feature>
				<threshold> 0.83203125 </threshold>
				<split pos="left">
					<feature> 5013 </feature>
					<threshold> 0.0 </threshold>
					<split pos="left">
						<feature> 4439 </feature>
						<threshold> 0.0 </threshold>
						<split pos="left">
							<feature> 325 </feature>
							<threshold> 0.265625 </threshold>
							<split pos="left">
								<output> -0.7972449064254761 </output>
							</split>
							<split pos="right">
								<feature> 1098 </feature>
								<threshold> 0.030524267 </threshold>
								<split pos="left">
									<feature> 1175 </feature>
									<threshold> 0.28438175 </threshold>
									<split pos="left">
										<feature> 1022 </feature>
										<threshold> 0.16015625 </threshold>
										<split pos="left">
											<feature> 882 </feature>
											<threshold> 0.044144414 </threshold>
											<split pos="left">
												<output> 0.6012336611747742 </output>
											</split>
											<split pos="right">
												<output> 1.3295583724975586 </output>
											</split>
										</split>
										<split pos="right">
											<output> 1.1958669424057007 </output>
										</split>
									</split>
									<split pos="right">
										<output> 1.3385790586471558 </output>
									</split>
								</split>
								<split pos="right">
									<output> 1.0830930471420288 </output>
								</split>
							</split>
						</split>
						<split pos="right">
							<output> 1.1047027111053467 </output>
						</split>
					</split>
					<split pos="right">
						<output> 1.2892255783081055 </output>
					</split>
				</split>
				<split pos="right">
					<output> 1.2412397861480713 </output>
				</split>
			</split>
			<split pos="right">
				<output> 1.2780400514602661 </output>
			</split>
		</split>
	</tree>
	<tree id="8" weight="0.1">
		<split>
			<feature> 1637 </feature>
			<threshold> 0.63740146 </threshold>
			<split pos="left">
				<feature> 307 </feature>
				<threshold> 0.83203125 </threshold>
				<split pos="left">
					<feature> 3830 </feature>
					<threshold> 0.5 </threshold>
					<split pos="left">
						<feature> 4439 </feature>
						<threshold> 0.0 </threshold>
						<split pos="left">
							<feature> 325 </feature>
							<threshold> 0.30078125 </threshold>
							<split pos="left">
								<output> -0.6058884263038635 </output>
							</split>
							<split pos="right">
								<feature> 1098 </feature>
								<threshold> 0.030524267 </threshold>
								<split pos="left">
									<feature> 913 </feature>
									<threshold> 0.07464757 </threshold>
									<split pos="left">
										<feature> 1022 </feature>
										<threshold> 0.16015625 </threshold>
										<split pos="left">
											<feature> 734 </feature>
											<threshold> 0.110182315 </threshold>
											<split pos="left">
												<output> 0.6224742531776428 </output>
											</split>
											<split pos="right">
												<output> 1.2602272033691406 </output>
											</split>
										</split>
										<split pos="right">
											<output> 1.145477533340454 </output>
										</split>
									</split>
									<split pos="right">
										<output> 1.2812395095825195 </output>
									</split>
								</split>
								<split pos="right">
									<output> 1.0097707509994507 </output>
								</split>
							</split>
						</split>
						<split pos="right">
							<output> 1.0503920316696167 </output>
						</split>
					</split>
					<split pos="right">
						<output> 1.2374043464660645 </output>
					</split>
				</split>
				<split pos="right">
					<output> 1.19961678981781 </output>
				</split>
			</split>
			<split pos="right">
				<output> 1.2412599325180054 </output>
			</split>
		</split>
	</tree>
	<tree id="9" weight="0.1">
		<split>
			<feature> 1637 </feature>
			<threshold> 0.63740146 </threshold>
			<split pos="left">
				<feature> 307 </feature>
				<threshold> 0.83203125 </threshold>
				<split pos="left">
					<feature> 325 </feature>
					<threshold> 0.30078125 </threshold>
					<split pos="left">
						<output> -0.6193113327026367 </output>
					</split>
					<split pos="right">
						<feature> 138 </feature>
						<threshold> 0.55801946 </threshold>
						<split pos="left">
							<feature> 1098 </feature>
							<threshold> 0.030524267 </threshold>
							<split pos="left">
								<feature> 91 </feature>
								<threshold> 0.17126635 </threshold>
								<split pos="left">
									<output> 1.1562541723251343 </output>
								</split>
								<split pos="right">
									<feature> 1022 </feature>
									<threshold> 0.16015625 </threshold>
									<split pos="left">
										<feature> 4373 </feature>
										<threshold> 0.0 </threshold>
										<split pos="left">
											<feature> 1202 </feature>
											<threshold> 0.11623025 </threshold>
											<split pos="left">
												<output> 0.576499879360199 </output>
											</split>
											<split pos="right">
												<output> 1.1467496156692505 </output>
											</split>
										</split>
										<split pos="right">
											<output> 1.2488123178482056 </output>
										</split>
									</split>
									<split pos="right">
										<output> 1.1011910438537598 </output>
									</split>
								</split>
							</split>
							<split pos="right">
								<output> 0.9568637609481812 </output>
							</split>
						</split>
						<split pos="right">
							<output> 1.2385833263397217 </output>
						</split>
					</split>
				</split>
				<split pos="right">
					<output> 1.168447732925415 </output>
				</split>
			</split>
			<split pos="right">
				<output> 1.2096149921417236 </output>
			</split>
		</split>
	</tree>
	<tree id="10" weight="0.1">
		<split>
			<feature> 1637 </feature>
			<threshold> 0.63740146 </threshold>
			<split pos="left">
				<feature> 307 </feature>
				<threshold> 0.83203125 </threshold>
				<split pos="left">
					<feature> 4373 </feature>
					<threshold> 0.0 </threshold>
					<split pos="left">
						<feature> 4439 </feature>
						<threshold> 0.0 </threshold>
						<split pos="left">
							<feature> 325 </feature>
							<threshold> 0.30078125 </threshold>
							<split pos="left">
								<output> -0.5912503004074097 </output>
							</split>
							<split pos="right">
								<feature> 138 </feature>
								<threshold> 0.55801946 </threshold>
								<split pos="left">
									<feature> 1098 </feature>
									<threshold> 0.030524267 </threshold>
									<split pos="left">
										<feature> 91 </feature>
										<threshold> 0.17126635 </threshold>
										<split pos="left">
											<output> 1.1098012924194336 </output>
										</split>
										<split pos="right">
											<feature> 1022 </feature>
											<threshold> 0.16015625 </threshold>
											<split pos="left">
												<output> 0.530068576335907 </output>
											</split>
											<split pos="right">
												<output> 1.0635738372802734 </output>
											</split>
										</split>
									</split>
									<split pos="right">
										<output> 0.8720983862876892 </output>
									</split>
								</split>
								<split pos="right">
									<output> 1.1990644931793213 </output>
								</split>
							</split>
						</split>
						<split pos="right">
							<output> 1.0043189525604248 </output>
						</split>
					</split>
					<split pos="right">
						<output> 1.2107906341552734 </output>
					</split>
				</split>
				<split pos="right">
					<output> 1.142462134361267 </output>
				</split>
			</split>
			<split pos="right">
				<output> 1.1834769248962402 </output>
			</split>
		</split>
	</tree>
	<tree id="11" weight="0.1">
		<split>
			<feature> 1637 </feature>
			<threshold> 0.63740146 </threshold>
			<split pos="left">
				<feature> 307 </feature>
				<threshold> 0.83203125 </threshold>
				<split pos="left">
					<feature> 4373 </feature>
					<threshold> 0.0 </threshold>
					<split pos="left">
						<feature> 4439 </feature>
						<threshold> 0.0 </threshold>
						<split pos="left">
							<feature> 325 </feature>
							<threshold> 0.30078125 </threshold>
							<split pos="left">
								<output> -0.5385733842849731 </output>
							</split>
							<split pos="right">
								<feature> 913 </feature>
								<threshold> 0.07464757 </threshold>
								<split pos="left">
									<feature> 1098 </feature>
									<threshold> 0.030524267 </threshold>
									<split pos="left">
										<feature> 1608 </feature>
										<threshold> 0.0 </threshold>
										<split pos="left">
											<feature> 1022 </feature>
											<threshold> 0.16015625 </threshold>
											<split pos="left">
												<output> 0.4796014726161957 </output>
											</split>
											<split pos="right">
												<output> 1.0201910734176636 </output>
											</split>
										</split>
										<split pos="right">
											<output> 1.0686132907867432 </output>
										</split>
									</split>
									<split pos="right">
										<output> 0.8202873468399048 </output>
									</split>
								</split>
								<split pos="right">
									<output> 1.1672708988189697 </output>
								</split>
							</split>
						</split>
						<split pos="right">
							<output> 0.9606695771217346 </output>
						</split>
					</split>
					<split pos="right">
						<output> 1.1767699718475342 </output>
					</split>
				</split>
				<split pos="right">
					<output> 1.121295690536499 </output>
				</split>
			</split>
			<split pos="right">
				<output> 1.1622109413146973 </output>
			</split>
		</split>
	</tree>
	<tree id="12" weight="0.1">
		<split>
			<feature> 1637 </feature>
			<threshold> 0.63740146 </threshold>
			<split pos="left">
				<feature> 307 </feature>
				<threshold> 0.83203125 </threshold>
				<split pos="left">
					<feature> 4373 </feature>
					<threshold> 0.0 </threshold>
					<split pos="left">
						<feature> 325 </feature>
						<threshold> 0.19921875 </threshold>
						<split pos="left">
							<output> -0.6530198454856873 </output>
						</split>
						<split pos="right">
							<feature> 913 </feature>
							<threshold> 0.20658088 </threshold>
							<split pos="left">
								<feature> 4439 </feature>
								<threshold> 0.0 </threshold>
								<split pos="left">
									<feature> 1098 </feature>
									<threshold> 0.030524267 </threshold>
									<split pos="left">
										<feature> 1175 </feature>
										<threshold> 0.28438175 </threshold>
										<split pos="left">
											<feature> 1608 </feature>
											<threshold> 0.0 </threshold>
											<split pos="left">
												<output> 0.411247193813324 </output>
											</split>
											<split pos="right">
												<output> 1.0316704511642456 </output>
											</split>
										</split>
										<split pos="right">
											<output> 1.276343584060669 </output>
										</split>
									</split>
									<split pos="right">
										<output> 0.7542024850845337 </output>
									</split>
								</split>
								<split pos="right">
									<output> 0.9193775653839111 </output>
								</split>
							</split>
							<split pos="right">
								<output> 1.127309799194336 </output>
							</split>
						</split>
					</split>
					<split pos="right">
						<output> 1.1495368480682373 </output>
					</split>
				</split>
				<split pos="right">
					<output> 1.1041505336761475 </output>
				</split>
			</split>
			<split pos="right">
				<output> 1.1449190378189087 </output>
			</split>
		</split>
	</tree>
	<tree id="13" weight="0.1">
		<split>
			<feature> 1637 </feature>
			<threshold> 0.63740146 </threshold>
			<split pos="left">
				<feature> 307 </feature>
				<threshold> 0.83203125 </threshold>
				<split pos="left">
					<feature> 4373 </feature>
					<threshold> 0.0 </threshold>
					<split pos="left">
						<feature> 325 </feature>
						<threshold> 0.1875 </threshold>
						<split pos="left">
							<output> -0.607738733291626 </output>
						</split>
						<split pos="right">
							<feature> 913 </feature>
							<threshold> 0.11833048 </threshold>
							<split pos="left">
								<feature> 4439 </feature>
								<threshold> 0.0 </threshold>
								<split pos="left">
									<feature> 1022 </feature>
									<threshold> 0.05078125 </threshold>
									<split pos="left">
										<feature> 1175 </feature>
										<threshold> 0.28438175 </threshold>
										<split pos="left">
											<feature> 201 </feature>
											<threshold> -1.5189408 </threshold>
											<split pos="left">
												<output> 0.9987766742706299 </output>
											</split>
											<split pos="right">
												<output> 0.341631144285202 </output>
											</split>
										</split>
										<split pos="right">
											<output> 1.2424372434616089 </output>
										</split>
									</split>
									<split pos="right">
										<output> 0.9358388781547546 </output>
									</split>
								</split>
								<split pos="right">
									<output> 0.8775240778923035 </output>
								</split>
							</split>
							<split pos="right">
								<output> 1.104537010192871 </output>
							</split>
						</split>
					</split>
					<split pos="right">
						<output> 1.1271036863327026 </output>
					</split>
				</split>
				<split pos="right">
					<output> 1.0906697511672974 </output>
				</split>
			</split>
			<split pos="right">
				<output> 1.1348360776901245 </output>
			</split>
		</split>
	</tree>
	<tree id="14" weight="0.1">
		<split>
			<feature> 1637 </feature>
			<threshold> 0.63740146 </threshold>
			<split pos="left">
				<feature> 307 </feature>
				<threshold> 0.83203125 </threshold>
				<split pos="left">
					<feature> 4373 </feature>
					<threshold> 0.0 </threshold>
					<split pos="left">
						<feature> 325 </feature>
						<threshold> 0.32421875 </threshold>
						<split pos="left">
							<feature> 4439 </feature>
							<threshold> 0.0 </threshold>
							<split pos="left">
								<output> -0.36281096935272217 </output>
							</split>
							<split pos="right">
								<output> 1.0993387699127197 </output>
							</split>
						</split>
						<split pos="right">
							<feature> 1098 </feature>
							<threshold> 0.027154654 </threshold>
							<split pos="left">
								<feature> 138 </feature>
								<threshold> 0.55801946 </threshold>
								<split pos="left">
									<feature> 1202 </feature>
									<threshold> 0.11623025 </threshold>
									<split pos="left">
										<feature> 1022 </feature>
										<threshold> 0.046875 </threshold>
										<split pos="left">
											<output> 0.40617048740386963 </output>
										</split>
										<split pos="right">
											<output> 0.975182831287384 </output>
										</split>
									</split>
									<split pos="right">
										<output> 1.0552499294281006 </output>
									</split>
								</split>
								<split pos="right">
									<output> 1.1043580770492554 </output>
								</split>
							</split>
							<split pos="right">
								<output> 0.7816509008407593 </output>
							</split>
						</split>
					</split>
					<split pos="right">
						<output> 1.109020709991455 </output>
					</split>
				</split>
				<split pos="right">
					<output> 1.0797127485275269 </output>
				</split>
			</split>
			<split pos="right">
				<output> 1.1259225606918335 </output>
			</split>
		</split>
	</tree>
	<tree id="15" weight="0.1">
		<split>
			<feature> 1637 </feature>
			<threshold> 0.63740146 </threshold>
			<split pos="left">
				<feature> 307 </feature>
				<threshold> 0.83203125 </threshold>
				<split pos="left">
					<feature> 325 </feature>
					<threshold> 0.32421875 </threshold>
					<split pos="left">
						<output> -0.37249383330345154 </output>
					</split>
					<split pos="right">
						<feature> 1098 </feature>
						<threshold> 0.026447374 </threshold>
						<split pos="left">
							<feature> 913 </feature>
							<threshold> 0.07464757 </threshold>
							<split pos="left">
								<feature> 4373 </feature>
								<threshold> 0.0 </threshold>
								<split pos="left">
									<feature> 3339 </feature>
									<threshold> 0.0 </threshold>
									<split pos="left">
										<feature> 407 </feature>
										<threshold> 0.8 </threshold>
										<split pos="left">
											<feature> 1022 </feature>
											<threshold> 0.05859375 </threshold>
											<split pos="left">
												<output> 0.3771425485610962 </output>
											</split>
											<split pos="right">
												<output> 0.9803588390350342 </output>
											</split>
										</split>
										<split pos="right">
											<output> 1.683022379875183 </output>
										</split>
									</split>
									<split pos="right">
										<output> 1.0981991291046143 </output>
									</split>
								</split>
								<split pos="right">
									<output> 1.0947195291519165 </output>
								</split>
							</split>
							<split pos="right">
								<output> 1.0907669067382812 </output>
							</split>
						</split>
						<split pos="right">
							<output> 0.7574015855789185 </output>
						</split>
					</split>
				</split>
				<split pos="right">
					<output> 1.0700362920761108 </output>
				</split>
			</split>
			<split pos="right">
				<output> 1.1135746240615845 </output>
			</split>
		</split>
	</tree>
	<tree id="16" weight="0.1">
		<split>
			<feature> 1637 </feature>
			<threshold> 0.63740146 </threshold>
			<split pos="left">
				<feature> 307 </feature>
				<threshold> 0.83203125 </threshold>
				<split pos="left">
					<feature> 325 </feature>
					<threshold> 0.32421875 </threshold>
					<split pos="left">
						<output> -0.3379793167114258 </output>
					</split>
					<split pos="right">
						<feature> 1098 </feature>
						<threshold> 0.026447374 </threshold>
						<split pos="left">
							<feature> 913 </feature>
							<threshold> 0.07464757 </threshold>
							<split pos="left">
								<feature> 4373 </feature>
								<threshold> 0.0 </threshold>
								<split pos="left">
									<feature> 3339 </feature>
									<threshold> 0.0 </threshold>
									<split pos="left">
										<feature> 407 </feature>
										<threshold> 0.8 </threshold>
										<split pos="left">
											<feature> 1022 </feature>
											<threshold> 0.05859375 </threshold>
											<split pos="left">
												<output> 0.33990737795829773 </output>
											</split>
											<split pos="right">
												<output> 0.9591150879859924 </output>
											</split>
										</split>
										<split pos="right">
											<output> 1.6147444248199463 </output>
										</split>
									</split>
									<split pos="right">
										<output> 1.0857467651367188 </output>
									</split>
								</split>
								<split pos="right">
									<output> 1.0822330713272095 </output>
								</split>
							</split>
							<split pos="right">
								<output> 1.0789101123809814 </output>
							</split>
						</split>
						<split pos="right">
							<output> 0.7145318984985352 </output>
						</split>
					</split>
				</split>
				<split pos="right">
					<output> 1.061503291130066 </output>
				</split>
			</split>
			<split pos="right">
				<output> 1.1026902198791504 </output>
			</split>
		</split>
	</tree>
	<tree id="17" weight="0.1">
		<split>
			<feature> 1637 </feature>
			<threshold> 0.63740146 </threshold>
			<split pos="left">
				<feature> 307 </feature>
				<threshold> 0.83203125 </threshold>
				<split pos="left">
					<feature> 325 </feature>
					<threshold> 0.1875 </threshold>
					<split pos="left">
						<output> -0.5017563700675964 </output>
					</split>
					<split pos="right">
						<feature> 1022 </feature>
						<threshold> 0.05078125 </threshold>
						<split pos="left">
							<feature> 1175 </feature>
							<threshold> 0.28438175 </threshold>
							<split pos="left">
								<feature> 4373 </feature>
								<threshold> 0.0 </threshold>
								<split pos="left">
									<feature> 1608 </feature>
									<threshold> 0.0 </threshold>
									<split pos="left">
										<feature> 4365 </feature>
										<threshold> 0.0 </threshold>
										<split pos="left">
											<feature> 913 </feature>
											<threshold> 0.1177084 </threshold>
											<split pos="left">
												<output> 0.26330140233039856 </output>
											</split>
											<split pos="right">
												<output> 1.044285535812378 </output>
											</split>
										</split>
										<split pos="right">
											<output> 1.4399137496948242 </output>
										</split>
									</split>
									<split pos="right">
										<output> 0.9713469743728638 </output>
									</split>
								</split>
								<split pos="right">
									<output> 1.07171630859375 </output>
								</split>
							</split>
							<split pos="right">
								<output> 1.2027841806411743 </output>
							</split>
						</split>
						<split pos="right">
							<output> 0.8354419469833374 </output>
						</split>
					</split>
				</split>
				<split pos="right">
					<output> 1.054246187210083 </output>
				</split>
			</split>
			<split pos="right">
				<output> 1.0932263135910034 </output>
			</split>
		</split>
	</tree>
	<tree id="18" weight="0.1">
		<split>
			<feature> 1637 </feature>
			<threshold> 0.63740146 </threshold>
			<split pos="left">
				<feature> 307 </feature>
				<threshold> 0.83203125 </threshold>
				<split pos="left">
					<feature> 4365 </feature>
					<threshold> 0.0 </threshold>
					<split pos="left">
						<feature> 325 </feature>
						<threshold> 0.328125 </threshold>
						<split pos="left">
							<output> -0.2855225205421448 </output>
						</split>
						<split pos="right">
							<feature> 3339 </feature>
							<threshold> 0.0 </threshold>
							<split pos="left">
								<feature> 1098 </feature>
								<threshold> 0.026447374 </threshold>
								<split pos="left">
									<feature> 4373 </feature>
									<threshold> 0.0 </threshold>
									<split pos="left">
										<feature> 407 </feature>
										<threshold> 0.8 </threshold>
										<split pos="left">
											<feature> 185 </feature>
											<threshold> 0.25725368 </threshold>
											<split pos="left">
												<output> 0.31717172265052795 </output>
											</split>
											<split pos="right">
												<output> 1.0702816247940063 </output>
											</split>
										</split>
										<split pos="right">
											<output> 1.5585238933563232 </output>
										</split>
									</split>
									<split pos="right">
										<output> 1.0626952648162842 </output>
									</split>
								</split>
								<split pos="right">
									<output> 0.6327710151672363 </output>
								</split>
							</split>
							<split pos="right">
								<output> 1.0709973573684692 </output>
							</split>
						</split>
					</split>
					<split pos="right">
						<output> 1.3599356412887573 </output>
					</split>
				</split>
				<split pos="right">
					<output> 1.0485795736312866 </output>
				</split>
			</split>
			<split pos="right">
				<output> 1.0876535177230835 </output>
			</split>
		</split>
	</tree>
	<tree id="19" weight="0.1">
		<split>
			<feature> 1637 </feature>
			<threshold> 0.63740146 </threshold>
			<split pos="left">
				<feature> 4373 </feature>
				<threshold> 0.0 </threshold>
				<split pos="left">
					<feature> 307 </feature>
					<threshold> 0.83203125 </threshold>
					<split pos="left">
						<feature> 4365 </feature>
						<threshold> 0.0 </threshold>
						<split pos="left">
							<feature> 325 </feature>
							<threshold> 0.390625 </threshold>
							<split pos="left">
								<feature> 1608 </feature>
								<threshold> 0.0 </threshold>
								<split pos="left">
									<feature> 1098 </feature>
									<threshold> 0.03089007 </threshold>
									<split pos="left">
										<feature> 3339 </feature>
										<threshold> 0.0 </threshold>
										<split pos="left">
											<feature> 1175 </feature>
											<threshold> 0.30328318 </threshold>
											<split pos="left">
												<output> -0.19594502449035645 </output>
											</split>
											<split pos="right">
												<output> 1.1247156858444214 </output>
											</split>
										</split>
										<split pos="right">
											<output> 1.0874162912368774 </output>
										</split>
									</split>
									<split pos="right">
										<output> 0.7691026329994202 </output>
									</split>
								</split>
								<split pos="right">
									<output> 0.9430567622184753 </output>
								</split>
							</split>
							<split pos="right">
								<output> 0.49947530031204224 </output>
							</split>
						</split>
						<split pos="right">
							<output> 1.3080545663833618 </output>
						</split>
					</split>
					<split pos="right">
						<output> 1.043118953704834 </output>
					</split>
				</split>
				<split pos="right">
					<output> 1.0560402870178223 </output>
				</split>
			</split>
			<split pos="right">
				<output> 1.079797625541687 </output>
			</split>
		</split>
	</tree>
	<tree id="20" weight="0.1">
		<split>
			<feature> 1637 </feature>
			<threshold> 0.63740146 </threshold>
			<split pos="left">
				<feature> 325 </feature>
				<threshold> 0.390625 </threshold>
				<split pos="left">
					<feature> 4365 </feature>
					<threshold> 0.0 </threshold>
					<split pos="left">
						<feature> 4373 </feature>
						<threshold> 0.0 </threshold>
						<split pos="left">
							<feature> 307 </feature>
							<threshold> 0.83203125 </threshold>
							<split pos="left">
								<feature> 1608 </feature>
								<threshold> 0.0 </threshold>
								<split pos="left">
									<feature> 1175 </feature>
									<threshold> 0.30328318 </threshold>
									<split pos="left">
										<feature> 3830 </feature>
										<threshold> 0.5 </threshold>
										<split pos="left">
											<feature> 827 </feature>
											<threshold> 0.02538524 </threshold>
											<split pos="left">
												<output> -0.27557751536369324 </output>
											</split>
											<split pos="right">
												<output> 0.9364947080612183 </output>
											</split>
										</split>
										<split pos="right">
											<output> 1.1505603790283203 </output>
										</split>
									</split>
									<split pos="right">
										<output> 1.0786932706832886 </output>
									</split>
								</split>
								<split pos="right">
									<output> 0.9154198169708252 </output>
								</split>
							</split>
							<split pos="right">
								<output> 1.0384624004364014 </output>
							</split>
						</split>
						<split pos="right">
							<output> 1.0497294664382935 </output>
						</split>
					</split>
					<split pos="right">
						<output> 1.2630043029785156 </output>
					</split>
				</split>
				<split pos="right">
					<output> 0.49227797985076904 </output>
				</split>
			</split>
			<split pos="right">
				<output> 1.0714490413665771 </output>
			</split>
		</split>
	</tree>
	<tree id="21" weight="0.1">
		<split>
			<feature> 1637 </feature>
			<threshold> 0.63740146 </threshold>
			<split pos="left">
				<feature> 325 </feature>
				<threshold> 0.390625 </threshold>
				<split pos="left">
					<feature> 4365 </feature>
					<threshold> 0.0 </threshold>
					<split pos="left">
						<feature> 4373 </feature>
						<threshold> 0.0 </threshold>
						<split pos="left">
							<feature> 307 </feature>
							<threshold> 0.83203125 </threshold>
							<split pos="left">
								<feature> 1608 </feature>
								<threshold> 0.0 </threshold>
								<split pos="left">
									<feature> 827 </feature>
									<threshold> 0.02538524 </threshold>
									<split pos="left">
										<feature> 3830 </feature>
										<threshold> 0.5 </threshold>
										<split pos="left">
											<feature> 539 </feature>
											<threshold> 0.0 </threshold>
											<split pos="left">
												<output> -0.2521805763244629 </output>
											</split>
											<split pos="right">
												<output> 1.1980770826339722 </output>
											</split>
										</split>
										<split pos="right">
											<output> 1.1317156553268433 </output>
										</split>
									</split>
									<split pos="right">
										<output> 0.9587149024009705 </output>
									</split>
								</split>
								<split pos="right">
									<output> 0.8869937658309937 </output>
								</split>
							</split>
							<split pos="right">
								<output> 1.0340360403060913 </output>
							</split>
						</split>
						<split pos="right">
							<output> 1.0437654256820679 </output>
						</split>
					</split>
					<split pos="right">
						<output> 1.2265660762786865 </output>
					</split>
				</split>
				<split pos="right">
					<output> 0.44650042057037354 </output>
				</split>
			</split>
			<split pos="right">
				<output> 1.0634894371032715 </output>
			</split>
		</split>
	</tree>
	<tree id="22" weight="0.1">
		<split>
			<feature> 1637 </feature>
			<threshold> 0.63740146 </threshold>
			<split pos="left">
				<feature> 4365 </feature>
				<threshold> 0.0 </threshold>
				<split pos="left">
					<feature> 325 </feature>
					<threshold> 0.390625 </threshold>
					<split pos="left">
						<feature> 4373 </feature>
						<threshold> 0.0 </threshold>
						<split pos="left">
							<feature> 307 </feature>
							<threshold> 0.83203125 </threshold>
							<split pos="left">
								<feature> 1608 </feature>
								<threshold> 0.0 </threshold>
								<split pos="left">
									<feature> 5021 </feature>
									<threshold> 0.0 </threshold>
									<split pos="left">
										<feature> 3830 </feature>
										<threshold> 0.5 </threshold>
										<split pos="left">
											<feature> 326 </feature>
											<threshold> 0.0 </threshold>
											<split pos="left">
												<output> -0.4507680833339691 </output>
											</split>
											<split pos="right">
												<output> 0.22603358328342438 </output>
											</split>
										</split>
										<split pos="right">
											<output> 1.1160098314285278 </output>
										</split>
									</split>
									<split pos="right">
										<output> 1.1743665933609009 </output>
									</split>
								</split>
								<split pos="right">
									<output> 0.8583447933197021 </output>
								</split>
							</split>
							<split pos="right">
								<output> 1.030195951461792 </output>
							</split>
						</split>
						<split pos="right">
							<output> 1.038648009300232 </output>
						</split>
					</split>
					<split pos="right">
						<output> 0.42210716009140015 </output>
					</split>
				</split>
				<split pos="right">
					<output> 1.196410059928894 </output>
				</split>
			</split>
			<split pos="right">
				<output> 1.056501865386963 </output>
			</split>
		</split>
	</tree>
	<tree id="23" weight="0.1">
		<split>
			<feature> 1637 </feature>
			<threshold> 0.63740146 </threshold>
			<split pos="left">
				<feature> 4365 </feature>
				<threshold> 0.0 </threshold>
				<split pos="left">
					<feature> 325 </feature>
					<threshold> 0.390625 </threshold>
					<split pos="left">
						<feature> 4373 </feature>
						<threshold> 0.0 </threshold>
						<split pos="left">
							<feature> 307 </feature>
							<threshold> 0.83203125 </threshold>
							<split pos="left">
								<feature> 5021 </feature>
								<threshold> 0.0 </threshold>
								<split pos="left">
									<feature> 1175 </feature>
									<threshold> 0.30328318 </threshold>
									<split pos="left">
										<feature> 539 </feature>
										<threshold> 0.0 </threshold>
										<split pos="left">
											<feature> 4439 </feature>
											<threshold> 0.0 </threshold>
											<split pos="left">
												<output> -0.1952008157968521 </output>
											</split>
											<split pos="right">
												<output> 1.0775235891342163 </output>
											</split>
										</split>
										<split pos="right">
											<output> 1.1674784421920776 </output>
										</split>
									</split>
									<split pos="right">
										<output> 1.0551064014434814 </output>
									</split>
								</split>
								<split pos="right">
									<output> 1.1499665975570679 </output>
								</split>
							</split>
							<split pos="right">
								<output> 1.0265976190567017 </output>
							</split>
						</split>
						<split pos="right">
							<output> 1.0334508419036865 </output>
						</split>
					</split>
					<split pos="right">
						<output> 0.3884061276912689 </output>
					</split>
				</split>
				<split pos="right">
					<output> 1.167647123336792 </output>
				</split>
			</split>
			<split pos="right">
				<output> 1.049373745918274 </output>
			</split>
		</split>
	</tree>
	<tree id="24" weight="0.1">
		<split>
			<feature> 1637 </feature>
			<threshold> 0.63740146 </threshold>
			<split pos="left">
				<feature> 4365 </feature>
				<threshold> 0.0 </threshold>
				<split pos="left">
					<feature> 625 </feature>
					<threshold> 0.2 </threshold>
					<split pos="left">
						<feature> 325 </feature>
						<threshold> 0.390625 </threshold>
						<split pos="left">
							<feature> 1175 </feature>
							<threshold> 0.30328318 </threshold>
							<split pos="left">
								<feature> 4373 </feature>
								<threshold> 0.0 </threshold>
								<split pos="left">
									<feature> 827 </feature>
									<threshold> 0.02538524 </threshold>
									<split pos="left">
										<feature> 5021 </feature>
										<threshold> 0.0 </threshold>
										<split pos="left">
											<feature> 307 </feature>
											<threshold> 0.83203125 </threshold>
											<split pos="left">
												<output> -0.19750851392745972 </output>
											</split>
											<split pos="right">
												<output> 1.0237455368041992 </output>
											</split>
										</split>
										<split pos="right">
											<output> 1.1321802139282227 </output>
										</split>
									</split>
									<split pos="right">
										<output> 0.8892526030540466 </output>
									</split>
								</split>
								<split pos="right">
									<output> 1.0297659635543823 </output>
								</split>
							</split>
							<split pos="right">
								<output> 1.0432380437850952 </output>
							</split>
						</split>
						<split pos="right">
							<output> 0.33208581805229187 </output>
						</split>
					</split>
					<split pos="right">
						<output> 1.4196511507034302 </output>
					</split>
				</split>
				<split pos="right">
					<output> 1.146338939666748 </output>
				</split>
			</split>
			<split pos="right">
				<output> 1.0441192388534546 </output>
			</split>
		</split>
	</tree>
	<tree id="25" weight="0.1">
		<split>
			<feature> 1637 </feature>
			<threshold> 0.63740146 </threshold>
			<split pos="left">
				<feature> 625 </feature>
				<threshold> 0.2 </threshold>
				<split pos="left">
					<feature> 4365 </feature>
					<threshold> 0.0 </threshold>
					<split pos="left">
						<feature> 407 </feature>
						<threshold> 0.8 </threshold>
						<split pos="left">
							<feature> 325 </feature>
							<threshold> 0.1875 </threshold>
							<split pos="left">
								<output> -0.38244932889938354 </output>
							</split>
							<split pos="right">
								<feature> 185 </feature>
								<threshold> 0.28128263 </threshold>
								<split pos="left">
									<feature> 1175 </feature>
									<threshold> 0.28438175 </threshold>
									<split pos="left">
										<feature> 872 </feature>
										<threshold> 0.43747035 </threshold>
										<split pos="left">
											<feature> 1098 </feature>
											<threshold> 0.21645263 </threshold>
											<split pos="left">
												<output> 0.2276403158903122 </output>
											</split>
											<split pos="right">
												<output> -4.687897205352783 </output>
											</split>
										</split>
										<split pos="right">
											<output> -3.2222342491149902 </output>
										</split>
									</split>
									<split pos="right">
										<output> 1.1021062135696411 </output>
									</split>
								</split>
								<split pos="right">
									<output> 1.0445976257324219 </output>
								</split>
							</split>
						</split>
						<split pos="right">
							<output> 1.4891164302825928 </output>
						</split>
					</split>
					<split pos="right">
						<output> 1.1290308237075806 </output>
					</split>
				</split>
				<split pos="right">
					<output> 1.3984495401382446 </output>
				</split>
			</split>
			<split pos="right">
				<output> 1.0394045114517212 </output>
			</split>
		</split>
	</tree>
	<tree id="26" weight="0.1">
		<split>
			<feature> 1637 </feature>
			<threshold> 0.63740146 </threshold>
			<split pos="left">
				<feature> 567 </feature>
				<threshold> 0.5 </threshold>
				<split pos="left">
					<feature> 4365 </feature>
					<threshold> 0.0 </threshold>
					<split pos="left">
						<feature> 407 </feature>
						<threshold> 0.8 </threshold>
						<split pos="left">
							<feature> 52 </feature>
							<threshold> 0.094085395 </threshold>
							<split pos="left">
								<feature> 4192 </feature>
								<threshold> 0.0 </threshold>
								<split pos="left">
									<feature> 913 </feature>
									<threshold> 0.20658088 </threshold>
									<split pos="left">
										<feature> 1921 </feature>
										<threshold> 0.0 </threshold>
										<split pos="left">
											<output> -0.3244742453098297 </output>
										</split>
										<split pos="right">
											<output> 1.061583161354065 </output>
										</split>
									</split>
									<split pos="right">
										<output> 1.0218958854675293 </output>
									</split>
								</split>
								<split pos="right">
									<output> 1.1388720273971558 </output>
								</split>
							</split>
							<split pos="right">
								<feature> 325 </feature>
								<threshold> 0.3984375 </threshold>
								<split pos="left">
									<output> 0.16554582118988037 </output>
								</split>
								<split pos="right">
									<output> 0.5444604158401489 </output>
								</split>
							</split>
						</split>
						<split pos="right">
							<output> 1.4388134479522705 </output>
						</split>
					</split>
					<split pos="right">
						<output> 1.112220287322998 </output>
					</split>
				</split>
				<split pos="right">
					<output> 1.363845705986023 </output>
				</split>
			</split>
			<split pos="right">
				<output> 1.0370135307312012 </output>
			</split>
		</split>
	</tree>
	<tree id="27" weight="0.1">
		<split>
			<feature> 1637 </feature>
			<threshold> 0.63740146 </threshold>
			<split pos="left">
				<feature> 4192 </feature>
				<threshold> 0.5 </threshold>
				<split pos="left">
					<feature> 325 </feature>
					<threshold> 0.3984375 </threshold>
					<split pos="left">
						<feature> 4365 </feature>
						<threshold> 0.0 </threshold>
						<split pos="left">
							<feature> 893 </feature>
							<threshold> 0.9049035 </threshold>
							<split pos="left">
								<feature> 827 </feature>
								<threshold> 0.02538524 </threshold>
								<split pos="left">
									<feature> 1608 </feature>
									<threshold> 0.0 </threshold>
									<split pos="left">
										<feature> 5021 </feature>
										<threshold> 0.0 </threshold>
										<split pos="left">
											<feature> 1384 </feature>
											<threshold> 0.69140625 </threshold>
											<split pos="left">
												<output> -0.19654186069965363 </output>
											</split>
											<split pos="right">
												<output> 1.2058924436569214 </output>
											</split>
										</split>
										<split pos="right">
											<output> 1.1083709001541138 </output>
										</split>
									</split>
									<split pos="right">
										<output> 0.8157569766044617 </output>
									</split>
								</split>
								<split pos="right">
									<output> 0.8068476319313049 </output>
								</split>
							</split>
							<split pos="right">
								<output> 1.8854643106460571 </output>
							</split>
						</split>
						<split pos="right">
							<output> 1.1009550094604492 </output>
						</split>
					</split>
					<split pos="right">
						<output> 0.3863656222820282 </output>
					</split>
				</split>
				<split pos="right">
					<output> 1.1343939304351807 </output>
				</split>
			</split>
			<split pos="right">
				<output> 1.03313148021698 </output>
			</split>
		</split>
	</tree>
	<tree id="28" weight="0.1">
		<split>
			<feature> 893 </feature>
			<threshold> 0.9049035 </threshold>
			<split pos="left">
				<feature> 1637 </feature>
				<threshold> 0.63740146 </threshold>
				<split pos="left">
					<feature> 4365 </feature>
					<threshold> 0.0 </threshold>
					<split pos="left">
						<feature> 4192 </feature>
						<threshold> 0.5 </threshold>
						<split pos="left">
							<feature> 325 </feature>
							<threshold> 0.4296875 </threshold>
							<split pos="left">
								<feature> 52 </feature>
								<threshold> 0.10836693 </threshold>
								<split pos="left">
									<output> -0.42961573600769043 </output>
								</split>
								<split pos="right">
									<feature> 1175 </feature>
									<threshold> 0.30328318 </threshold>
									<split pos="left">
										<feature> 1301 </feature>
										<threshold> 0.27367878 </threshold>
										<split pos="left">
											<feature> 1182 </feature>
											<threshold> 0.0 </threshold>
											<split pos="left">
												<output> 0.20926479995250702 </output>
											</split>
											<split pos="right">
												<output> 1.4002965688705444 </output>
											</split>
										</split>
										<split pos="right">
											<output> 1.4118623733520508 </output>
										</split>
									</split>
									<split pos="right">
										<output> 1.0787261724472046 </output>
									</split>
								</split>
							</split>
							<split pos="right">
								<output> 0.46943768858909607 </output>
							</split>
						</split>
						<split pos="right">
							<output> 1.1225872039794922 </output>
						</split>
					</split>
					<split pos="right">
						<output> 1.0912116765975952 </output>
					</split>
				</split>
				<split pos="right">
					<output> 1.029581069946289 </output>
				</split>
			</split>
			<split pos="right">
				<output> 1.7042351961135864 </output>
			</split>
		</split>
	</tree>
	<tree id="29" weight="0.1">
		<split>
			<feature> 893 </feature>
			<threshold> 0.9049035 </threshold>
			<split pos="left">
				<feature> 1637 </feature>
				<threshold> 0.63740146 </threshold>
				<split pos="left">
					<feature> 325 </feature>
					<threshold> 0.4296875 </threshold>
					<split pos="left">
						<feature> 1301 </feature>
						<threshold> 0.5022255 </threshold>
						<split pos="left">
							<feature> 4365 </feature>
							<threshold> 0.0 </threshold>
							<split pos="left">
								<feature> 4192 </feature>
								<threshold> 0.5 </threshold>
								<split pos="left">
									<feature> 277 </feature>
									<threshold> 0.1872792 </threshold>
									<split pos="left">
										<output> -0.6659614443778992 </output>
									</split>
									<split pos="right">
										<feature> 1175 </feature>
										<threshold> 0.29814106 </threshold>
										<split pos="left">
											<feature> 307 </feature>
											<threshold> 0.7109375 </threshold>
											<split pos="left">
												<output> 0.07549816370010376 </output>
											</split>
											<split pos="right">
												<output> 1.0186259746551514 </output>
											</split>
										</split>
										<split pos="right">
											<output> 1.0714954137802124 </output>
										</split>
									</split>
								</split>
								<split pos="right">
									<output> 1.1132787466049194 </output>
								</split>
							</split>
							<split pos="right">
								<output> 1.081516146659851 </output>
							</split>
						</split>
						<split pos="right">
							<output> 1.3727620840072632 </output>
						</split>
					</split>
					<split pos="right">
						<output> 0.4457978308200836 </output>
					</split>
				</split>
				<split pos="right">
					<output> 1.0261342525482178 </output>
				</split>
			</split>
			<split pos="right">
				<output> 1.5844225883483887 </output>
			</split>
		</split>
	</tree>
	<tree id="30" weight="0.1">
		<split>
			<feature> 893 </feature>
			<threshold> 0.9049035 </threshold>
			<split pos="left">
				<feature> 1637 </feature>
				<threshold> 0.63740146 </threshold>
				<split pos="left">
					<feature> 325 </feature>
					<threshold> 0.4296875 </threshold>
					<split pos="left">
						<feature> 1301 </feature>
						<threshold> 0.5022255 </threshold>
						<split pos="left">
							<feature> 4365 </feature>
							<threshold> 0.0 </threshold>
							<split pos="left">
								<feature> 4192 </feature>
								<threshold> 0.5 </threshold>
								<split pos="left">
									<feature> 52 </feature>
									<threshold> 0.14169054 </threshold>
									<split pos="left">
										<output> -0.3407367169857025 </output>
									</split>
									<split pos="right">
										<output> 0.24933239817619324 </output>
									</split>
								</split>
								<split pos="right">
									<output> 1.105682134628296 </output>
								</split>
							</split>
							<split pos="right">
								<output> 1.0724056959152222 </output>
							</split>
						</split>
						<split pos="right">
							<output> 1.338344931602478 </output>
						</split>
					</split>
					<split pos="right">
						<feature> 1773 </feature>
						<threshold> 0.0 </threshold>
						<split pos="left">
							<feature> 391 </feature>
							<threshold> 0.5234375 </threshold>
							<split pos="left">
								<output> 0.41103464365005493 </output>
							</split>
							<split pos="right">
								<output> -3.929844379425049 </output>
							</split>
						</split>
						<split pos="right">
							<output> 1.30652916431427 </output>
						</split>
					</split>
				</split>
				<split pos="right">
					<output> 1.0236668586730957 </output>
				</split>
			</split>
			<split pos="right">
				<output> 1.485297441482544 </output>
			</split>
		</split>
	</tree>
	<tree id="31" weight="0.1">
		<split>
			<feature> 893 </feature>
			<threshold> 0.9049035 </threshold>
			<split pos="left">
				<feature> 1637 </feature>
				<threshold> 0.63740146 </threshold>
				<split pos="left">
					<feature> 325 </feature>
					<threshold> 0.4375 </threshold>
					<split pos="left">
						<feature> 1301 </feature>
						<threshold> 0.60388845 </threshold>
						<split pos="left">
							<feature> 4365 </feature>
							<threshold> 0.0 </threshold>
							<split pos="left">
								<feature> 4192 </feature>
								<threshold> 0.5 </threshold>
								<split pos="left">
									<feature> 52 </feature>
									<threshold> 0.14169054 </threshold>
									<split pos="left">
										<output> -0.32743313908576965 </output>
									</split>
									<split pos="right">
										<feature> 1175 </feature>
										<threshold> 0.30328318 </threshold>
										<split pos="left">
											<output> 0.23666195571422577 </output>
										</split>
										<split pos="right">
											<output> 1.060801386833191 </output>
										</split>
									</split>
								</split>
								<split pos="right">
									<output> 1.0983203649520874 </output>
								</split>
							</split>
							<split pos="right">
								<output> 1.0647697448730469 </output>
							</split>
						</split>
						<split pos="right">
							<output> 1.29952871799469 </output>
						</split>
					</split>
					<split pos="right">
						<feature> 1773 </feature>
						<threshold> 0.0 </threshold>
						<split pos="left">
							<output> 0.40278592705726624 </output>
						</split>
						<split pos="right">
							<output> 1.2648797035217285 </output>
						</split>
					</split>
				</split>
				<split pos="right">
					<output> 1.0210410356521606 </output>
				</split>
			</split>
			<split pos="right">
				<output> 1.413061261177063 </output>
			</split>
		</split>
	</tree>
	<tree id="32" weight="0.1">
		<split>
			<feature> 893 </feature>
			<threshold> 0.9049035 </threshold>
			<split pos="left">
				<feature> 325 </feature>
				<threshold> 0.4375 </threshold>
				<split pos="left">
					<feature> 1637 </feature>
					<threshold> 0.63740146 </threshold>
					<split pos="left">
						<feature> 1301 </feature>
						<threshold> 0.60388845 </threshold>
						<split pos="left">
							<feature> 4365 </feature>
							<threshold> 0.0 </threshold>
							<split pos="left">
								<feature> 4192 </feature>
								<threshold> 0.5 </threshold>
								<split pos="left">
									<feature> 1608 </feature>
									<threshold> 0.0 </threshold>
									<split pos="left">
										<feature> 1 </feature>
										<threshold> 0.16796875 </threshold>
										<split pos="left">
											<feature> 1175 </feature>
											<threshold> 0.30328318 </threshold>
											<split pos="left">
												<output> -0.22111864387989044 </output>
											</split>
											<split pos="right">
												<output> 1.0434271097183228 </output>
											</split>
										</split>
										<split pos="right">
											<output> 0.5172217488288879 </output>
										</split>
									</split>
									<split pos="right">
										<output> 0.7898642420768738 </output>
									</split>
								</split>
								<split pos="right">
									<output> 1.091260552406311 </output>
								</split>
							</split>
							<split pos="right">
								<output> 1.0581154823303223 </output>
							</split>
						</split>
						<split pos="right">
							<output> 1.2650524377822876 </output>
						</split>
					</split>
					<split pos="right">
						<output> 1.0187432765960693 </output>
					</split>
				</split>
				<split pos="right">
					<output> 0.3706870973110199 </output>
				</split>
			</split>
			<split pos="right">
				<output> 1.354365587234497 </output>
			</split>
		</split>
	</tree>
	<tree id="33" weight="0.1">
		<split>
			<feature> 893 </feature>
			<threshold> 0.9049035 </threshold>
			<split pos="left">
				<feature> 52 </feature>
				<threshold> 0.094085395 </threshold>
				<split pos="left">
					<output> -0.3438887894153595 </output>
				</split>
				<split pos="right">
					<feature> 325 </feature>
					<threshold> 0.4375 </threshold>
					<split pos="left">
						<feature> 433 </feature>
						<threshold> 0.4609375 </threshold>
						<split pos="left">
							<feature> 4365 </feature>
							<threshold> 0.0 </threshold>
							<split pos="left">
								<feature> 1301 </feature>
								<threshold> 0.60388845 </threshold>
								<split pos="left">
									<feature> 876 </feature>
									<threshold> 0.1624171 </threshold>
									<split pos="left">
										<feature> 2845 </feature>
										<threshold> 0.0730327 </threshold>
										<split pos="left">
											<feature> 327 </feature>
											<threshold> 0.67037225 </threshold>
											<split pos="left">
												<output> 0.1291443258523941 </output>
											</split>
											<split pos="right">
												<output> 1.5232608318328857 </output>
											</split>
										</split>
										<split pos="right">
											<output> 1.6674119234085083 </output>
										</split>
									</split>
									<split pos="right">
										<output> 1.5644683837890625 </output>
									</split>
								</split>
								<split pos="right">
									<output> 1.2347406148910522 </output>
								</split>
							</split>
							<split pos="right">
								<output> 1.0528650283813477 </output>
							</split>
						</split>
						<split pos="right">
							<output> 1.6675057411193848 </output>
						</split>
					</split>
					<split pos="right">
						<output> 0.5003670454025269 </output>
					</split>
				</split>
			</split>
			<split pos="right">
				<output> 1.3042558431625366 </output>
			</split>
		</split>
	</tree>
	<tree id="34" weight="0.1">
		<split>
			<feature> 893 </feature>
			<threshold> 0.9049035 </threshold>
			<split pos="left">
				<feature> 4365 </feature>
				<threshold> 0.0 </threshold>
				<split pos="left">
					<feature> 2845 </feature>
					<threshold> 0.0730327 </threshold>
					<split pos="left">
						<feature> 1637 </feature>
						<threshold> 0.63740146 </threshold>
						<split pos="left">
							<feature> 407 </feature>
							<threshold> 0.8 </threshold>
							<split pos="left">
								<feature> 52 </feature>
								<threshold> 0.094085395 </threshold>
								<split pos="left">
									<output> -0.32672083377838135 </output>
								</split>
								<split pos="right">
									<feature> 433 </feature>
									<threshold> 0.4609375 </threshold>
									<split pos="left">
										<feature> 325 </feature>
										<threshold> 0.4375 </threshold>
										<split pos="left">
											<feature> 327 </feature>
											<threshold> 0.67037225 </threshold>
											<split pos="left">
												<output> 0.12201309204101562 </output>
											</split>
											<split pos="right">
												<output> 1.4404221773147583 </output>
											</split>
										</split>
										<split pos="right">
											<output> 0.45618903636932373 </output>
										</split>
									</split>
									<split pos="right">
										<output> 1.563493251800537 </output>
									</split>
								</split>
							</split>
							<split pos="right">
								<output> 1.3899391889572144 </output>
							</split>
						</split>
						<split pos="right">
							<output> 1.0170867443084717 </output>
						</split>
					</split>
					<split pos="right">
						<output> 1.5364733934402466 </output>
					</split>
				</split>
				<split pos="right">
					<output> 1.0487971305847168 </output>
				</split>
			</split>
			<split pos="right">
				<output> 1.2643718719482422 </output>
			</split>
		</split>
	</tree>
	<tree id="35" weight="0.1">
		<split>
			<feature> 893 </feature>
			<threshold> 0.9049035 </threshold>
			<split pos="left">
				<feature> 4365 </feature>
				<threshold> 0.0 </threshold>
				<split pos="left">
					<feature> 2845 </feature>
					<threshold> 0.0730327 </threshold>
					<split pos="left">
						<feature> 4192 </feature>
						<threshold> 0.5 </threshold>
						<split pos="left">
							<feature> 625 </feature>
							<threshold> 0.2 </threshold>
							<split pos="left">
								<feature> 1637 </feature>
								<threshold> 0.63740146 </threshold>
								<split pos="left">
									<feature> 325 </feature>
									<threshold> 0.45703125 </threshold>
									<split pos="left">
										<feature> 1301 </feature>
										<threshold> 0.60388845 </threshold>
										<split pos="left">
											<feature> 307 </feature>
											<threshold> 0.83203125 </threshold>
											<split pos="left">
												<output> -0.0833556279540062 </output>
											</split>
											<split pos="right">
												<output> 1.0218498706817627 </output>
											</split>
										</split>
										<split pos="right">
											<output> 1.2053718566894531 </output>
										</split>
									</split>
									<split pos="right">
										<output> 0.3711702525615692 </output>
									</split>
								</split>
								<split pos="right">
									<output> 1.0153276920318604 </output>
								</split>
							</split>
							<split pos="right">
								<output> 1.2293437719345093 </output>
							</split>
						</split>
						<split pos="right">
							<output> 1.0890811681747437 </output>
						</split>
					</split>
					<split pos="right">
						<output> 1.4448572397232056 </output>
					</split>
				</split>
				<split pos="right">
					<output> 1.0443364381790161 </output>
				</split>
			</split>
			<split pos="right">
				<output> 1.2315278053283691 </output>
			</split>
		</split>
	</tree>
	<tree id="36" weight="0.1">
		<split>
			<feature> 893 </feature>
			<threshold> 0.9049035 </threshold>
			<split pos="left">
				<feature> 2845 </feature>
				<threshold> 0.0730327 </threshold>
				<split pos="left">
					<feature> 325 </feature>
					<threshold> 0.45703125 </threshold>
					<split pos="left">
						<feature> 4365 </feature>
						<threshold> 0.0 </threshold>
						<split pos="left">
							<feature> 625 </feature>
							<threshold> 0.2 </threshold>
							<split pos="left">
								<feature> 4192 </feature>
								<threshold> 0.5 </threshold>
								<split pos="left">
									<feature> 1637 </feature>
									<threshold> 0.63740146 </threshold>
									<split pos="left">
										<feature> 5021 </feature>
										<threshold> 0.0 </threshold>
										<split pos="left">
											<feature> 185 </feature>
											<threshold> 0.3053116 </threshold>
											<split pos="left">
												<output> -0.0939425602555275 </output>
											</split>
											<split pos="right">
												<output> 1.0086541175842285 </output>
											</split>
										</split>
										<split pos="right">
											<output> 1.0833736658096313 </output>
										</split>
									</split>
									<split pos="right">
										<output> 1.01377534866333 </output>
									</split>
								</split>
								<split pos="right">
									<output> 1.081793189048767 </output>
								</split>
							</split>
							<split pos="right">
								<output> 1.1550604104995728 </output>
							</split>
						</split>
						<split pos="right">
							<output> 1.039819359779358 </output>
						</split>
					</split>
					<split pos="right">
						<output> 0.37174269556999207 </output>
					</split>
				</split>
				<split pos="right">
					<output> 1.3845573663711548 </output>
				</split>
			</split>
			<split pos="right">
				<output> 1.202856183052063 </output>
			</split>
		</split>
	</tree>
	<tree id="37" weight="0.1">
		<split>
			<feature> 893 </feature>
			<threshold> 0.9049035 </threshold>
			<split pos="left">
				<feature> 559 </feature>
				<threshold> 0.22222222 </threshold>
				<split pos="left">
					<feature> 2845 </feature>
					<threshold> 0.0730327 </threshold>
					<split pos="left">
						<feature> 300 </feature>
						<threshold> -0.050177652 </threshold>
						<split pos="left">
							<feature> 433 </feature>
							<threshold> 0.4609375 </threshold>
							<split pos="left">
								<feature> 325 </feature>
								<threshold> 0.4453125 </threshold>
								<split pos="left">
									<output> 0.17261672019958496 </output>
								</split>
								<split pos="right">
									<output> 0.5477662682533264 </output>
								</split>
							</split>
							<split pos="right">
								<output> 1.453270673751831 </output>
							</split>
						</split>
						<split pos="right">
							<feature> 680 </feature>
							<threshold> 0.1764706 </threshold>
							<split pos="left">
								<feature> 307 </feature>
								<threshold> 0.7890625 </threshold>
								<split pos="left">
									<feature> 2030 </feature>
									<threshold> 0.0 </threshold>
									<split pos="left">
										<output> -0.22017765045166016 </output>
									</split>
									<split pos="right">
										<output> 1.0087196826934814 </output>
									</split>
								</split>
								<split pos="right">
									<output> 1.0172135829925537 </output>
								</split>
							</split>
							<split pos="right">
								<output> -5.156640529632568 </output>
							</split>
						</split>
					</split>
					<split pos="right">
						<output> 1.3196179866790771 </output>
					</split>
				</split>
				<split pos="right">
					<output> 1.0012454986572266 </output>
				</split>
			</split>
			<split pos="right">
				<output> 1.17837655544281 </output>
			</split>
		</split>
	</tree>
	<tree id="38" weight="0.1">
		<split>
			<feature> 893 </feature>
			<threshold> 0.9049035 </threshold>
			<split pos="left">
				<feature> 300 </feature>
				<threshold> -0.050177652 </threshold>
				<split pos="left">
					<feature> 1234 </feature>
					<threshold> 0.5101938 </threshold>
					<split pos="left">
						<feature> 2845 </feature>
						<threshold> 0.0730327 </threshold>
						<split pos="left">
							<feature> 325 </feature>
							<threshold> 0.4453125 </threshold>
							<split pos="left">
								<output> 0.17122778296470642 </output>
							</split>
							<split pos="right">
								<output> 0.5171988606452942 </output>
							</split>
						</split>
						<split pos="right">
							<output> 1.316124439239502 </output>
						</split>
					</split>
					<split pos="right">
						<output> -5.668068885803223 </output>
					</split>
				</split>
				<split pos="right">
					<feature> 559 </feature>
					<threshold> 0.22222222 </threshold>
					<split pos="left">
						<feature> 327 </feature>
						<threshold> 0.67037225 </threshold>
						<split pos="left">
							<feature> 307 </feature>
							<threshold> 0.7890625 </threshold>
							<split pos="left">
								<feature> 5021 </feature>
								<threshold> 0.0 </threshold>
								<split pos="left">
									<output> -0.24222826957702637 </output>
								</split>
								<split pos="right">
									<output> 1.0772514343261719 </output>
								</split>
							</split>
							<split pos="right">
								<output> 1.0154809951782227 </output>
							</split>
						</split>
						<split pos="right">
							<output> 1.376290202140808 </output>
						</split>
					</split>
					<split pos="right">
						<output> 0.9578577280044556 </output>
					</split>
				</split>
			</split>
			<split pos="right">
				<output> 1.1590572595596313 </output>
			</split>
		</split>
	</tree>
	<tree id="39" weight="0.1">
		<split>
			<feature> 893 </feature>
			<threshold> 0.9049035 </threshold>
			<split pos="left">
				<feature> 300 </feature>
				<threshold> -0.050177652 </threshold>
				<split pos="left">
					<feature> 433 </feature>
					<threshold> 0.4609375 </threshold>
					<split pos="left">
						<feature> 325 </feature>
						<threshold> 0.4453125 </threshold>
						<split pos="left">
							<output> 0.1557997465133667 </output>
						</split>
						<split pos="right">
							<output> 0.4870421588420868 </output>
						</split>
					</split>
					<split pos="right">
						<output> 1.3505358695983887 </output>
					</split>
				</split>
				<split pos="right">
					<feature> 559 </feature>
					<threshold> 0.22222222 </threshold>
					<split pos="left">
						<feature> 682 </feature>
						<threshold> 0.71428573 </threshold>
						<split pos="left">
							<feature> 1608 </feature>
							<threshold> 0.0 </threshold>
							<split pos="left">
								<feature> 1362 </feature>
								<threshold> 0.17648986 </threshold>
								<split pos="left">
									<feature> 1637 </feature>
									<threshold> 0.63740146 </threshold>
									<split pos="left">
										<output> -0.22767317295074463 </output>
									</split>
									<split pos="right">
										<output> 1.0127314329147339 </output>
									</split>
								</split>
								<split pos="right">
									<output> -4.9636030197143555 </output>
								</split>
							</split>
							<split pos="right">
								<output> 0.7769596576690674 </output>
							</split>
						</split>
						<split pos="right">
							<output> 1.0920220613479614 </output>
						</split>
					</split>
					<split pos="right">
						<output> 0.9149525165557861 </output>
					</split>
				</split>
			</split>
			<split pos="right">
				<output> 1.1393673419952393 </output>
			</split>
		</split>
	</tree>
	<tree id="40" weight="0.1">
		<split>
			<feature> 893 </feature>
			<threshold> 0.9049035 </threshold>
			<split pos="left">
				<feature> 63 </feature>
				<threshold> 0.19002275 </threshold>
				<split pos="left">
					<feature> 407 </feature>
					<threshold> 0.8 </threshold>
					<split pos="left">
						<feature> 307 </feature>
						<threshold> 0.7890625 </threshold>
						<split pos="left">
							<feature> 4373 </feature>
							<threshold> 0.0 </threshold>
							<split pos="left">
								<feature> 5021 </feature>
								<threshold> 0.0 </threshold>
								<split pos="left">
									<feature> 682 </feature>
									<threshold> 0.42857143 </threshold>
									<split pos="left">
										<feature> 4192 </feature>
										<threshold> 0.5 </threshold>
										<split pos="left">
											<feature> 1608 </feature>
											<threshold> 0.0 </threshold>
											<split pos="left">
												<output> -0.1313289850950241 </output>
											</split>
											<split pos="right">
												<output> 0.7483774423599243 </output>
											</split>
										</split>
										<split pos="right">
											<output> 1.069705843925476 </output>
										</split>
									</split>
									<split pos="right">
										<output> 1.082492470741272 </output>
									</split>
								</split>
								<split pos="right">
									<output> 1.0706543922424316 </output>
								</split>
							</split>
							<split pos="right">
								<output> 1.0236823558807373 </output>
							</split>
						</split>
						<split pos="right">
							<output> 1.0141689777374268 </output>
						</split>
					</split>
					<split pos="right">
						<output> 1.3097541332244873 </output>
					</split>
				</split>
				<split pos="right">
					<output> 0.37178003787994385 </output>
				</split>
			</split>
			<split pos="right">
				<output> 1.1220556497573853 </output>
			</split>
		</split>
	</tree>
	<tree id="41" weight="0.1">
		<split>
			<feature> 893 </feature>
			<threshold> 0.9049035 </threshold>
			<split pos="left">
				<feature> 63 </feature>
				<threshold> 0.1953759 </threshold>
				<split pos="left">
					<feature> 407 </feature>
					<threshold> 0.8 </threshold>
					<split pos="left">
						<feature> 3830 </feature>
						<threshold> 0.5 </threshold>
						<split pos="left">
							<feature> 1637 </feature>
							<threshold> 0.63740146 </threshold>
							<split pos="left">
								<feature> 307 </feature>
								<threshold> 0.83203125 </threshold>
								<split pos="left">
									<feature> 4373 </feature>
									<threshold> 0.0 </threshold>
									<split pos="left">
										<feature> 327 </feature>
										<threshold> 0.67037225 </threshold>
										<split pos="left">
											<feature> 319 </feature>
											<threshold> 0.44444445 </threshold>
											<split pos="left">
												<output> -0.13937176764011383 </output>
											</split>
											<split pos="right">
												<output> 1.1606309413909912 </output>
											</split>
										</split>
										<split pos="right">
											<output> 1.2596226930618286 </output>
										</split>
									</split>
									<split pos="right">
										<output> 1.0215792655944824 </output>
									</split>
								</split>
								<split pos="right">
									<output> 1.0129188299179077 </output>
								</split>
							</split>
							<split pos="right">
								<output> 1.0115227699279785 </output>
							</split>
						</split>
						<split pos="right">
							<output> 1.0759316682815552 </output>
						</split>
					</split>
					<split pos="right">
						<output> 1.2715933322906494 </output>
					</split>
				</split>
				<split pos="right">
					<output> 0.3723772168159485 </output>
				</split>
			</split>
			<split pos="right">
				<output> 1.107403039932251 </output>
			</split>
		</split>
	</tree>
	<tree id="42" weight="0.1">
		<split>
			<feature> 893 </feature>
			<threshold> 0.9049035 </threshold>
			<split pos="left">
				<feature> 3691 </feature>
				<threshold> 0.86176914 </threshold>
				<split pos="left">
					<feature> 300 </feature>
					<threshold> -0.12578654 </threshold>
					<split pos="left">
						<feature> 433 </feature>
						<threshold> 0.4609375 </threshold>
						<split pos="left">
							<output> 0.30176055431365967 </output>
						</split>
						<split pos="right">
							<output> 1.340503215789795 </output>
						</split>
					</split>
					<split pos="right">
						<feature> 1623 </feature>
						<threshold> 0.0 </threshold>
						<split pos="left">
							<feature> 559 </feature>
							<threshold> 0.22222222 </threshold>
							<split pos="left">
								<feature> 327 </feature>
								<threshold> 0.67037225 </threshold>
								<split pos="left">
									<feature> 185 </feature>
									<threshold> 0.3053116 </threshold>
									<split pos="left">
										<feature> 5021 </feature>
										<threshold> 0.0 </threshold>
										<split pos="left">
											<output> -0.16137559711933136 </output>
										</split>
										<split pos="right">
											<output> 1.0649083852767944 </output>
										</split>
									</split>
									<split pos="right">
										<output> 0.999689519405365 </output>
									</split>
								</split>
								<split pos="right">
									<output> 1.2273216247558594 </output>
								</split>
							</split>
							<split pos="right">
								<output> 0.8353602290153503 </output>
							</split>
						</split>
						<split pos="right">
							<output> 1.0423402786254883 </output>
						</split>
					</split>
				</split>
				<split pos="right">
					<output> 1.2825230360031128 </output>
				</split>
			</split>
			<split pos="right">
				<output> 1.0940696001052856 </output>
			</split>
		</split>
	</tree>
	<tree id="43" weight="0.1">
		<split>
			<feature> 893 </feature>
			<threshold> 0.9049035 </threshold>
			<split pos="left">
				<feature> 5021 </feature>
				<threshold> 0.0 </threshold>
				<split pos="left">
					<feature> 63 </feature>
					<threshold> 0.20072906 </threshold>
					<split pos="left">
						<feature> 827 </feature>
						<threshold> 0.5615176 </threshold>
						<split pos="left">
							<feature> 407 </feature>
							<threshold> 0.8 </threshold>
							<split pos="left">
								<feature> 5013 </feature>
								<threshold> 0.0 </threshold>
								<split pos="left">
									<feature> 4192 </feature>
									<threshold> 0.5 </threshold>
									<split pos="left">
										<feature> 1608 </feature>
										<threshold> 0.0 </threshold>
										<split pos="left">
											<feature> 307 </feature>
											<threshold> 0.83203125 </threshold>
											<split pos="left">
												<output> -0.12384667247533798 </output>
											</split>
											<split pos="right">
												<output> 1.0120079517364502 </output>
											</split>
										</split>
										<split pos="right">
											<output> 0.7227177619934082 </output>
										</split>
									</split>
									<split pos="right">
										<output> 1.0642627477645874 </output>
									</split>
								</split>
								<split pos="right">
									<output> 1.0696219205856323 </output>
								</split>
							</split>
							<split pos="right">
								<output> 1.2445772886276245 </output>
							</split>
						</split>
						<split pos="right">
							<output> 1.5889484882354736 </output>
						</split>
					</split>
					<split pos="right">
						<output> 0.3551816940307617 </output>
					</split>
				</split>
				<split pos="right">
					<output> 1.0629066228866577 </output>
				</split>
			</split>
			<split pos="right">
				<output> 1.0881478786468506 </output>
			</split>
		</split>
	</tree>
	<tree id="44" weight="0.1">
		<split>
			<feature> 893 </feature>
			<threshold> 0.9049035 </threshold>
			<split pos="left">
				<feature> 5021 </feature>
				<threshold> 0.0 </threshold>
				<split pos="left">
					<feature> 300 </feature>
					<threshold> -0.12578654 </threshold>
					<split pos="left">
						<feature> 433 </feature>
						<threshold> 0.4609375 </threshold>
						<split pos="left">
							<feature> 2845 </feature>
							<threshold> 0.0730327 </threshold>
							<split pos="left">
								<feature> 915 </feature>
								<threshold> 0.0 </threshold>
								<split pos="left">
									<feature> 780 </feature>
									<threshold> 0.25 </threshold>
									<split pos="left">
										<output> 0.20269885659217834 </output>
									</split>
									<split pos="right">
										<output> 1.1426960229873657 </output>
									</split>
								</split>
								<split pos="right">
									<output> 0.935971200466156 </output>
								</split>
							</split>
							<split pos="right">
								<output> 1.2449678182601929 </output>
							</split>
						</split>
						<split pos="right">
							<output> 1.2867001295089722 </output>
						</split>
					</split>
					<split pos="right">
						<feature> 1623 </feature>
						<threshold> 0.0 </threshold>
						<split pos="left">
							<feature> 277 </feature>
							<threshold> 0.26225388 </threshold>
							<split pos="left">
								<output> -0.4568098783493042 </output>
							</split>
							<split pos="right">
								<output> 0.1103753075003624 </output>
							</split>
						</split>
						<split pos="right">
							<output> 1.0127586126327515 </output>
						</split>
					</split>
				</split>
				<split pos="right">
					<output> 1.0570118427276611 </output>
				</split>
			</split>
			<split pos="right">
				<output> 1.0777966976165771 </output>
			</split>
		</split>
	</tree>
	<tree id="45" weight="0.1">
		<split>
			<feature> 893 </feature>
			<threshold> 0.9049035 </threshold>
			<split pos="left">
				<feature> 5021 </feature>
				<threshold> 0.0 </threshold>
				<split pos="left">
					<feature> 63 </feature>
					<threshold> 0.20072906 </threshold>
					<split pos="left">
						<feature> 827 </feature>
						<threshold> 0.5615176 </threshold>
						<split pos="left">
							<feature> 1637 </feature>
							<threshold> 0.63740146 </threshold>
							<split pos="left">
								<feature> 4373 </feature>
								<threshold> 0.0 </threshold>
								<split pos="left">
									<feature> 2030 </feature>
									<threshold> 0.0 </threshold>
									<split pos="left">
										<feature> 913 </feature>
										<threshold> 0.23021893 </threshold>
										<split pos="left">
											<feature> 407 </feature>
											<threshold> 0.8 </threshold>
											<split pos="left">
												<output> -0.11778832226991653 </output>
											</split>
											<split pos="right">
												<output> 1.2160577774047852 </output>
											</split>
										</split>
										<split pos="right">
											<output> 1.0054069757461548 </output>
										</split>
									</split>
									<split pos="right">
										<output> 0.9928020238876343 </output>
									</split>
								</split>
								<split pos="right">
									<output> 1.0202199220657349 </output>
								</split>
							</split>
							<split pos="right">
								<output> 1.011090874671936 </output>
							</split>
						</split>
						<split pos="right">
							<output> 1.5068391561508179 </output>
						</split>
					</split>
					<split pos="right">
						<output> 0.32070183753967285 </output>
					</split>
				</split>
				<split pos="right">
					<output> 1.051805019378662 </output>
				</split>
			</split>
			<split pos="right">
				<output> 1.0690958499908447 </output>
			</split>
		</split>
	</tree>
	<tree id="46" weight="0.1">
		<split>
			<feature> 893 </feature>
			<threshold> 0.9049035 </threshold>
			<split pos="left">
				<feature> 3691 </feature>
				<threshold> 0.86176914 </threshold>
				<split pos="left">
					<feature> 5021 </feature>
					<threshold> 0.0 </threshold>
					<split pos="left">
						<feature> 325 </feature>
						<threshold> 0.5234375 </threshold>
						<split pos="left">
							<feature> 277 </feature>
							<threshold> 0.19517127 </threshold>
							<split pos="left">
								<output> -0.45306968688964844 </output>
							</split>
							<split pos="right">
								<feature> 433 </feature>
								<threshold> 0.46484375 </threshold>
								<split pos="left">
									<feature> 306 </feature>
									<threshold> 0.022727273 </threshold>
									<split pos="left">
										<output> -0.22893455624580383 </output>
									</split>
									<split pos="right">
										<feature> 2845 </feature>
										<threshold> 0.0730327 </threshold>
										<split pos="left">
											<feature> 493 </feature>
											<threshold> 0.0234375 </threshold>
											<split pos="left">
												<output> 0.2219115048646927 </output>
											</split>
											<split pos="right">
												<output> 0.8964614868164062 </output>
											</split>
										</split>
										<split pos="right">
											<output> 1.2106752395629883 </output>
										</split>
									</split>
								</split>
								<split pos="right">
									<output> 1.195828914642334 </output>
								</split>
							</split>
						</split>
						<split pos="right">
							<output> 0.5339661836624146 </output>
						</split>
					</split>
					<split pos="right">
						<output> 1.0469942092895508 </output>
					</split>
				</split>
				<split pos="right">
					<output> 1.2332110404968262 </output>
				</split>
			</split>
			<split pos="right">
				<output> 1.060375452041626 </output>
			</split>
		</split>
	</tree>
	<tree id="47" weight="0.1">
		<split>
			<feature> 893 </feature>
			<threshold> 0.9049035 </threshold>
			<split pos="left">
				<feature> 5021 </feature>
				<threshold> 0.0 </threshold>
				<split pos="left">
					<feature> 325 </feature>
					<threshold> 0.5234375 </threshold>
					<split pos="left">
						<feature> 1 </feature>
						<threshold> 0.16796875 </threshold>
						<split pos="left">
							<feature> 1637 </feature>
							<threshold> 0.63740146 </threshold>
							<split pos="left">
								<feature> 3691 </feature>
								<threshold> 0.0 </threshold>
								<split pos="left">
									<feature> 1623 </feature>
									<threshold> 0.0 </threshold>
									<split pos="left">
										<feature> 4365 </feature>
										<threshold> 0.0 </threshold>
										<split pos="left">
											<feature> 3830 </feature>
											<threshold> 0.5 </threshold>
											<split pos="left">
												<output> -0.1391943246126175 </output>
											</split>
											<split pos="right">
												<output> 1.0628662109375 </output>
											</split>
										</split>
										<split pos="right">
											<output> 1.0262072086334229 </output>
										</split>
									</split>
									<split pos="right">
										<output> 0.9802554845809937 </output>
									</split>
								</split>
								<split pos="right">
									<output> 1.209824562072754 </output>
								</split>
							</split>
							<split pos="right">
								<output> 1.0102550983428955 </output>
							</split>
						</split>
						<split pos="right">
							<output> 0.4686790108680725 </output>
						</split>
					</split>
					<split pos="right">
						<output> 0.5183622241020203 </output>
					</split>
				</split>
				<split pos="right">
					<output> 1.0428115129470825 </output>
				</split>
			</split>
			<split pos="right">
				<output> 1.0500359535217285 </output>
			</split>
		</split>
	</tree>
	<tree id="48" weight="0.1">
		<split>
			<feature> 893 </feature>
			<threshold> 0.9049035 </threshold>
			<split pos="left">
				<feature> 5021 </feature>
				<threshold> 0.0 </threshold>
				<split pos="left">
					<feature> 325 </feature>
					<threshold> 0.5234375 </threshold>
					<split pos="left">
						<feature> 1623 </feature>
						<threshold> 0.0 </threshold>
						<split pos="left">
							<feature> 3830 </feature>
							<threshold> 0.5 </threshold>
							<split pos="left">
								<feature> 1 </feature>
								<threshold> 0.16796875 </threshold>
								<split pos="left">
									<feature> 1637 </feature>
									<threshold> 0.63740146 </threshold>
									<split pos="left">
										<feature> 3691 </feature>
										<threshold> 0.0 </threshold>
										<split pos="left">
											<feature> 567 </feature>
											<threshold> 0.5 </threshold>
											<split pos="left">
												<output> -0.13464409112930298 </output>
											</split>
											<split pos="right">
												<output> 1.051195740699768 </output>
											</split>
										</split>
										<split pos="right">
											<output> 1.1876835823059082 </output>
										</split>
									</split>
									<split pos="right">
										<output> 1.0091968774795532 </output>
									</split>
								</split>
								<split pos="right">
									<output> 0.4280197322368622 </output>
								</split>
							</split>
							<split pos="right">
								<output> 1.0592013597488403 </output>
							</split>
						</split>
						<split pos="right">
							<output> 0.9766295552253723 </output>
						</split>
					</split>
					<split pos="right">
						<output> 0.48598262667655945 </output>
					</split>
				</split>
				<split pos="right">
					<output> 1.0386296510696411 </output>
				</split>
			</split>
			<split pos="right">
				<output> 1.041448950767517 </output>
			</split>
		</split>
	</tree>
	<tree id="49" weight="0.1">
		<split>
			<feature> 893 </feature>
			<threshold> 0.9049035 </threshold>
			<split pos="left">
				<feature> 325 </feature>
				<threshold> 0.5546875 </threshold>
				<split pos="left">
					<feature> 852 </feature>
					<threshold> 0.65394914 </threshold>
					<split pos="left">
						<feature> 5021 </feature>
						<threshold> 0.0 </threshold>
						<split pos="left">
							<feature> 1623 </feature>
							<threshold> 0.0 </threshold>
							<split pos="left">
								<feature> 3830 </feature>
								<threshold> 0.5 </threshold>
								<split pos="left">
									<feature> 205 </feature>
									<threshold> -0.51444906 </threshold>
									<split pos="left">
										<output> -0.5989693999290466 </output>
									</split>
									<split pos="right">
										<feature> 21 </feature>
										<threshold> 0.24205755 </threshold>
										<split pos="left">
											<feature> 248 </feature>
											<threshold> 0.2203912 </threshold>
											<split pos="left">
												<output> -0.04175926744937897 </output>
											</split>
											<split pos="right">
												<output> 1.0331032276153564 </output>
											</split>
										</split>
										<split pos="right">
											<output> 0.38175323605537415 </output>
										</split>
									</split>
								</split>
								<split pos="right">
									<output> 1.0547173023223877 </output>
								</split>
							</split>
							<split pos="right">
								<output> 0.9632514119148254 </output>
							</split>
						</split>
						<split pos="right">
							<output> 1.0348787307739258 </output>
						</split>
					</split>
					<split pos="right">
						<output> -4.634588718414307 </output>
					</split>
				</split>
				<split pos="right">
					<output> 0.6396191716194153 </output>
				</split>
			</split>
			<split pos="right">
				<output> 1.0331875085830688 </output>
			</split>
		</split>
	</tree>
	<tree id="50" weight="0.1">
		<split>
			<feature> 325 </feature>
			<threshold> 0.5234375 </threshold>
			<split pos="left">
				<feature> 893 </feature>
				<threshold> 0.9049035 </threshold>
				<split pos="left">
					<feature> 2845 </feature>
					<threshold> 0.0730327 </threshold>
					<split pos="left">
						<feature> 1623 </feature>
						<threshold> 0.0 </threshold>
						<split pos="left">
							<feature> 5021 </feature>
							<threshold> 0.0 </threshold>
							<split pos="left">
								<feature> 3830 </feature>
								<threshold> 0.5 </threshold>
								<split pos="left">
									<feature> 205 </feature>
									<threshold> -0.51444906 </threshold>
									<split pos="left">
										<output> -0.5930062532424927 </output>
									</split>
									<split pos="right">
										<feature> 1175 </feature>
										<threshold> 0.30328318 </threshold>
										<split pos="left">
											<feature> 12 </feature>
											<threshold> 0.034455307 </threshold>
											<split pos="left">
												<output> -0.14561644196510315 </output>
											</split>
											<split pos="right">
												<output> 0.2532960772514343 </output>
											</split>
										</split>
										<split pos="right">
											<output> 1.0179795026779175 </output>
										</split>
									</split>
								</split>
								<split pos="right">
									<output> 1.0491020679473877 </output>
								</split>
							</split>
							<split pos="right">
								<output> 1.031259536743164 </output>
							</split>
						</split>
						<split pos="right">
							<output> 0.9434037804603577 </output>
						</split>
					</split>
					<split pos="right">
						<output> 1.0831331014633179 </output>
					</split>
				</split>
				<split pos="right">
					<output> 1.0251284837722778 </output>
				</split>
			</split>
			<split pos="right">
				<output> 0.5090502500534058 </output>
			</split>
		</split>
	</tree>
	<tree id="51" weight="0.1">
		<split>
			<feature> 5021 </feature>
			<threshold> 0.0 </threshold>
			<split pos="left">
				<feature> 325 </feature>
				<threshold> 0.5546875 </threshold>
				<split pos="left">
					<feature> 893 </feature>
					<threshold> 0.9049035 </threshold>
					<split pos="left">
						<feature> 1022 </feature>
						<threshold> 0.0 </threshold>
						<split pos="left">
							<feature> 827 </feature>
							<threshold> 0.5615176 </threshold>
							<split pos="left">
								<feature> 1608 </feature>
								<threshold> 0.0 </threshold>
								<split pos="left">
									<feature> 559 </feature>
									<threshold> 0.22222222 </threshold>
									<split pos="left">
										<feature> 539 </feature>
										<threshold> 0.0 </threshold>
										<split pos="left">
											<feature> 407 </feature>
											<threshold> 0.8 </threshold>
											<split pos="left">
												<output> -0.07513872534036636 </output>
											</split>
											<split pos="right">
												<output> 1.2116779088974 </output>
											</split>
										</split>
										<split pos="right">
											<output> 1.0974884033203125 </output>
										</split>
									</split>
									<split pos="right">
										<output> 0.7710278630256653 </output>
									</split>
								</split>
								<split pos="right">
									<output> 0.7139191031455994 </output>
								</split>
							</split>
							<split pos="right">
								<output> 1.393270492553711 </output>
							</split>
						</split>
						<split pos="right">
							<output> 0.5369551181793213 </output>
						</split>
					</split>
					<split pos="right">
						<output> 1.0173568725585938 </output>
					</split>
				</split>
				<split pos="right">
					<output> 0.5870019197463989 </output>
				</split>
			</split>
			<split pos="right">
				<output> 1.0289720296859741 </output>
			</split>
		</split>
	</tree>
	<tree id="52" weight="0.1">
		<split>
			<feature> 5021 </feature>
			<threshold> 0.0 </threshold>
			<split pos="left">
				<feature> 325 </feature>
				<threshold> 0.5546875 </threshold>
				<split pos="left">
					<feature> 893 </feature>
					<threshold> 0.9049035 </threshold>
					<split pos="left">
						<feature> 54 </feature>
						<threshold> -0.10483503 </threshold>
						<split pos="left">
							<feature> 433 </feature>
							<threshold> 0.46484375 </threshold>
							<split pos="left">
								<feature> 306 </feature>
								<threshold> 0.022727273 </threshold>
								<split pos="left">
									<output> -0.21299408376216888 </output>
								</split>
								<split pos="right">
									<feature> 2845 </feature>
									<threshold> 0.0730327 </threshold>
									<split pos="left">
										<feature> 305 </feature>
										<threshold> 0.002666548 </threshold>
										<split pos="left">
											<output> 1.488437294960022 </output>
										</split>
										<split pos="right">
											<feature> 1623 </feature>
											<threshold> 0.0 </threshold>
											<split pos="left">
												<output> 0.1266878992319107 </output>
											</split>
											<split pos="right">
												<output> 1.0524828433990479 </output>
											</split>
										</split>
									</split>
									<split pos="right">
										<output> 1.132672667503357 </output>
									</split>
								</split>
							</split>
							<split pos="right">
								<output> 1.09651517868042 </output>
							</split>
						</split>
